int WinSize_4[2] = { 54, 18 };
int cascade_indices_4[170] = { 1, 2, 15, 1, 15, 3, 16, 0, 16, 4, 1, 1, 1, 3, 3, 3, 16, 2, 3, 1, 15, 2, 4, 1, 8, 2, 4, 3, 14, 4, 9, 2, 0, 4, 0, 0, 13, 1, 10, 3, 11, 3, 0, 1, 4, 4, 1, 4, 2, 1, 5, 4, 0, 2, 0, 3, 2, 3, 13, 3, 16, 3, 12, 3, 1, 0, 14, 0, 11, 1, 3, 4, 4, 0, 4, 2, 12, 1, 13, 0, 16, 1, 8, 4, 14, 1, 2, 2, 6, 3, 3, 2, 3, 0, 7, 1, 10, 4, 14, 3, 9, 0, 10, 0, 13, 2, 15, 4, 10, 2, 15, 0, 5, 0, 11, 0, 12, 4, 13, 4, 7, 2, 6, 1, 7, 4, 12, 0, 2, 4, 6, 4, 9, 3, 11, 2, 7, 3, 9, 1, 10, 1, 9, 4, 8, 0, 6, 2, 2, 0, 11, 4, 14, 2, 7, 0, 6, 0, 12, 2, 8, 3, 5, 1, 8, 1, 5, 3, 5, 2 };
float cascade_stage_th_4[6] = { 5.6, 3.5, 2.0, 0.95, 50, 0 };

float b_4 = 7.305213;

float Kernel_LUT_4[64][1024] = 
{
	{0.000000, 0.000000, 0.000000, 0.000000, 0.000000, 0.000000, 0.000000, 0.000000, 0.000000, 0.000000, 0.000000, 0.000000, 0.000000, 0.000000, 0.000000, 0.000000, 0.000000, 0.000000, 0.000000, 0.000000, 0.000000, 0.000000, 0.000000, 0.000000, 0.000000, 0.000000, 0.000000, 0.000000, 0.000000, 0.000000, 0.000000, 0.000000, 0.000000, 0.000000, 0.000000, 0.000000, 0.000000, 0.000000, 0.000000, 0.000000, 0.000000, 0.000000, 0.000000, 0.000000, 0.000000, 0.000000, 0.000000, 0.000000, 0.000000, 0.000000, 0.000000, 0.000000, 0.000000, 0.000000, 0.000000, 0.000000, 0.000000, 0.000000, 0.000000, 0.000000, 0.000000, 0.000000, 0.000000, 0.000000, 0.000000, 0.000000, 0.000000, 0.000000, 0.000000, 0.000000, 0.000000, 0.000000, 0.000000, 0.000000, 0.000000, 0.000000, 0.000000, 0.000000, 0.000000, 0.000000, 0.000000, 0.000000, 0.000000, 0.000000, 0.000000, 0.000000, 0.000000, 0.000000, 0.000000, 0.000000, 0.000000, 0.000000, 0.000000, 0.000000, 0.000000, 0.000000, 0.000000, 0.000000, 0.000000, 0.000000, 0.000000, 0.000000, 0.000000, 0.000000, 0.000000, 0.000000, 0.000000, 0.000000, 0.000000, 0.000000, 0.000000, 0.000000, 0.000000, 0.000000, 0.000000, 0.000000, 0.000000, 0.000000, 0.000000, 0.000000, 0.000000, 0.000000, 0.000000, 0.000000, 0.000000, 0.000000, 0.000000, 0.000000, 0.000000, 0.000000, 0.000000, 0.000000, 0.000000, 0.000000, 0.000000, 0.000000, 0.000000, 0.000000, 0.000000, 0.000000, 0.000000, 0.000000, 0.000000, 0.000000, 0.000000, 0.000000, 0.000000, 0.000000, 0.000000, 0.000000, 0.000000, 0.000000, 0.000000, 0.000000, 0.000000, 0.000000, 0.000000, 0.000000, 0.000000, 0.000000, 0.000000, 0.000000, 0.000000, 0.000000, 0.000000, 0.000000, 0.000000, 0.000000, 0.000000, 0.000000, 0.000000, 0.000000, 0.000000, 0.000000, 0.000000, 0.000000, 0.000000, 0.000000, 0.000000, 0.000000, 0.000000, 0.000000, 0.000000, 0.000000, 0.000000, 0.000000, 0.000000, 0.000000, 0.000000, 0.000000, 0.000000, 0.000000, 0.000000, 0.000000, 0.000000, 0.000000, 0.000000, 0.000000, 0.000000, 0.000000, 0.000000, 0.000000, 0.000000, 0.000000, 0.000000, 0.000000, 0.000000, 0.000000, 0.000000, 0.000000, 0.000000, 0.000000, 0.000000, 0.000000, 0.000000, 0.000000, 0.000000, 0.000000, 0.000000, 0.000000, 0.000000, 0.000000, 0.000000, 0.000000, 0.000000, 0.000000, 0.000000, 0.000000, 0.000000, 0.000000, 0.000000, 0.000000, 0.000000, 0.000000, 0.000000, 0.000000, 0.000000, 0.000000, 0.000000, 0.000000, 0.000000, 0.000000, 0.000000, 0.000000, 0.000000, 0.000000, 0.000000, 0.000000, 0.000000, 0.000000, 0.000000, 0.000000, 0.000000, 0.000000, 0.000000, 0.000000, 0.000000, 0.000000, 0.000000, 0.000000, 0.000000, 0.000000, 0.000000, 0.000000, 0.000000, 0.000000, 0.000000, 0.000000, 0.000000, 0.000000, 0.000000, 0.000000, 0.000000, 0.000000, 0.000000, 0.000000, 0.000000, 0.000000, 0.000000, 0.000000, 0.000000, 0.000000, 0.000000, 0.000000, 0.000000, 0.000000, 0.000000, 0.000000, 0.000000, 0.000000, 0.000000, 0.000000, 0.000000, 0.000000, 0.000000, 0.000000, 0.000000, 0.000000, 0.000000, 0.000000, 0.000000, 0.000000, 0.000000, 0.000000, 0.000000, 0.000000, 0.000000, 0.000000, 0.000000, 0.000000, 0.000000, 0.000000, 0.000000, 0.000000, 0.000000, 0.000000, 0.000000, 0.000000, 0.000000, 0.000000, 0.000000, 0.000000, 0.000000, 0.000000, 0.000000, 0.000000, 0.000000, 0.000000, 0.000000, 0.000000, 0.000000, 0.000000, 0.000000, 0.000000, 0.000000, 0.000000, 0.000000, 0.000000, 0.000000, 0.000000, 0.000000, 0.000000, 0.000000, 0.000000, 0.000000, 0.000000, 0.000000, 0.000000, 0.000000, 0.000000, 0.000000, 0.000000, 0.000000, 0.000000, 0.000000, 0.000000, 0.000000, 0.000000, 0.000000, 0.000000, 0.000000, 0.000000, 0.000000, 0.000000, 0.000000, 0.000000, 0.000000, 0.000000, 0.000000, 0.000000, 0.000000, 0.000000, 0.000000, 0.000000, 0.000000, 0.000000, 0.000000, 0.000000, 0.000000, 0.000000, 0.000000, 0.000000, 0.000000, 0.000000, 0.000000, 0.000000, 0.000000, 0.000000, 0.000000, 0.000000, 0.000000, 0.000000, 0.000000, 0.000000, 0.000000, 0.000000, 0.000000, 0.000000, 0.000000, 0.000000, 0.000000, 0.000000, 0.000000, 0.000000, 0.000000, 0.000000, 0.000000, 0.000000, 0.000000, 0.000000, 0.000000, 0.000000, 0.000000, 0.000000, 0.000000, 0.000000, 0.000000, 0.000000, 0.000000, 0.000000, 0.000000, 0.000000, 0.000000, 0.000000, 0.000000, 0.000000, 0.000000, 0.000000, 0.000000, 0.000000, 0.000000, 0.000000, 0.000000, 0.000000, 0.000000, 0.000000, 0.000000, 0.000000, 0.000000, 0.000000, 0.000000, 0.000000, 0.000000, 0.000000, 0.000000, 0.000000, 0.000000, 0.000000, 0.000000, 0.000000, 0.000000, 0.000000, 0.000000, 0.000000, 0.000000, 0.000000, 0.000000, 0.000000, 0.000000, 0.000000, 0.000000, 0.000000, 0.000000, 0.000000, 0.000000, 0.000000, 0.000000, 0.000000, 0.000000, 0.000000, 0.000000, 0.000000, 0.000000, 0.000000, 0.000000, 0.000000, 0.000000, 0.000000, 0.000000, 0.000000, 0.000000, 0.000000, 0.000000, 0.000000, 0.000000, 0.000000, 0.000000, 0.000000, 0.000000, 0.000000, 0.000000, 0.000000, 0.000000, 0.000000, 0.000000, 0.000000, 0.000000, 0.000000, 0.000000, 0.000000, 0.000000, 0.000000, 0.000000, 0.000000, 0.000000, 0.000000, 0.000000, 0.000000, 0.000000, 0.000000, 0.000000, 0.000000, 0.000000, 0.000000, 0.000000, 0.000000, 0.000000, 0.000000, 0.000000, 0.000000, 0.000000, 0.000000, 0.000000, 0.000000, 0.000000, 0.000000, 0.000000, 0.000000, 0.000000, 0.000000, 0.000000, 0.000000, 0.000000, 0.000000, 0.000000, 0.000000, 0.000000, 0.000000, 0.000000, 0.000000, 0.000000, 0.000000, 0.000000, 0.000000, 0.000000, 0.000000, 0.000000, 0.000000, 0.000000, 0.000000, 0.000000, 0.000000, 0.000000, 0.000000, 0.000000, 0.000000, 0.000000, 0.000000, 0.000000, 0.000000, 0.000000, 0.000000, 0.000000, 0.000000, 0.000000, 0.000000, 0.000000, 0.000000, 0.000000, 0.000000, 0.000000, 0.000000, 0.000000, 0.000000, 0.000000, 0.000000, 0.000000, 0.000000, 0.000000, 0.000000, 0.000000, 0.000000, 0.000000, 0.000000, 0.000000, 0.000000, 0.000000, 0.000000, 0.000000, 0.000000, 0.000000, 0.000000, 0.000000, 0.000000, 0.000000, 0.000000, 0.000000, 0.000000, 0.000000, 0.000000, 0.000000, 0.000000, 0.000000, 0.000000, 0.000000, 0.000000, 0.000000, 0.000000, 0.000000, 0.000000, 0.000000, 0.000000, 0.000000, 0.000000, 0.000000, 0.000000, 0.000000, 0.000000, 0.000000, 0.000000, 0.000000, 0.000000, 0.000000, 0.000000, 0.000000, 0.000000, 0.000000, 0.000000, 0.000000, 0.000000, 0.000000, 0.000000, 0.000000, 0.000000, 0.000000, 0.000000, 0.000000, 0.000000, 0.000000, 0.000000, 0.000000, 0.000000, 0.000000, 0.000000, 0.000000, 0.000000, 0.000000, 0.000000, 0.000000, 0.000000, 0.000000, 0.000000, 0.000000, 0.000000, 0.000000, 0.000000, 0.000000, 0.000000, 0.000000, 0.000000, 0.000000, 0.000000, 0.000000, 0.000000, 0.000000, 0.000000, 0.000000, 0.000000, 0.000000, 0.000000, 0.000000, 0.000000, 0.000000, 0.000000, 0.000000, 0.000000, 0.000000, 0.000000, 0.000000, 0.000000, 0.000000, 0.000000, 0.000000, 0.000000, 0.000000, 0.000000, 0.000000, 0.000000, 0.000000, 0.000000, 0.000000, 0.000000, 0.000000, 0.000000, 0.000000, 0.000000, 0.000000, 0.000000, 0.000000, 0.000000, 0.000000, 0.000000, 0.000000, 0.000000, 0.000000, 0.000000, 0.000000, 0.000000, 0.000000, 0.000000, 0.000000, 0.000000, 0.000000, 0.000000, 0.000000, 0.000000, 0.000000, 0.000000, 0.000000, 0.000000, 0.000000, 0.000000, 0.000000, 0.000000, 0.000000, 0.000000, 0.000000, 0.000000, 0.000000, 0.000000, 0.000000, 0.000000, 0.000000, 0.000000, 0.000000, 0.000000, 0.000000, 0.000000, 0.000000, 0.000000, 0.000000, 0.000000, 0.000000, 0.000000, 0.000000, 0.000000, 0.000000, 0.000000, 0.000000, 0.000000, 0.000000, 0.000000, 0.000000, 0.000000, 0.000000, 0.000000, 0.000000, 0.000000, 0.000000, 0.000000, 0.000000, 0.000000, 0.000000, 0.000000, 0.000000, 0.000000, 0.000000, 0.000000, 0.000000, 0.000000, 0.000000, 0.000000, 0.000000, 0.000000, 0.000000, 0.000000, 0.000000, 0.000000, 0.000000, 0.000000, 0.000000, 0.000000, 0.000000, 0.000000, 0.000000, 0.000000, 0.000000, 0.000000, 0.000000, 0.000000, 0.000000, 0.000000, 0.000000, 0.000000, 0.000000, 0.000000, 0.000000, 0.000000, 0.000000, 0.000000, 0.000000, 0.000000, 0.000000, 0.000000, 0.000000, 0.000000, 0.000000, 0.000000, 0.000000, 0.000000, 0.000000, 0.000000, 0.000000, 0.000000, 0.000000, 0.000000, 0.000000, 0.000000, 0.000000, 0.000000, 0.000000, 0.000000, 0.000000, 0.000000, 0.000000, 0.000000, 0.000000, 0.000000, 0.000000, 0.000000, 0.000000, 0.000000, 0.000000, 0.000000, 0.000000, 0.000000, 0.000000, 0.000000, 0.000000, 0.000000, 0.000000, 0.000000, 0.000000, 0.000000, 0.000000, 0.000000, 0.000000, 0.000000, 0.000000, 0.000000},
	{0.000540, 0.000283, 0.003317, 0.002862, -0.002943, -0.005440, -0.008398, -0.001437, -0.000142, 0.000001, 0.008723, 0.003734, 0.000021, 0.002748, 0.000082, -0.001184, -0.000200, 0.000984, 0.005982, 0.000001, 0.004613, 0.001466, 0.002607, 0.003647, 0.003193, 0.001799, 0.001682, 0.001265, 0.001927, 0.000001, 0.003875, 0.001264, 0.001165, -0.000757, -0.002693, -0.000363, -0.004887, -0.001733, 0.004069, 0.000001, -0.001747, -0.000947, -0.004843, -0.008073, -0.003544, -0.001217, -0.003999, -0.000338, 0.000029, 0.000001, -0.000947, -0.000384, -0.001615, 0.001732, -0.004199, -0.003120, -0.004520, -0.001929, -0.004108, 0.000001, 0.002003, 0.005359, 0.000318, 0.000000, 0.001309, 0.001193, 0.000929, 0.000076, 0.001433, 0.000001, 0.001941, 0.002782, 0.001648, 0.001254, 0.001910, 0.002018, 0.001393, 0.001347, 0.000662, 0.000001, 0.001635, 0.000379, 0.001822, 0.001122, -0.000271, 0.001665, -0.000143, 0.003266, 0.001358, 0.000001, -0.003732, -0.002802, -0.002877, -0.002337, -0.001456, 0.004199, 0.002320, 0.000419, -0.000646, 0.000001, 0.000343, 0.000623, -0.000947, 0.000767, -0.001107, -0.000777, 0.000169, 0.000705, 0.000065, 0.000001, 0.000450, 0.005000, 0.002710, 0.002220, -0.000687, 0.001167, 0.001736, 0.001633, 0.000037, 0.000001, -0.001367, 0.001635, -0.000132, -0.000556, 0.000534, -0.001218, 0.000765, 0.000872, -0.000603, 0.000001, -0.001071, 0.000006, 0.000652, 0.000888, 0.000898, 0.002363, 0.002412, 0.002980, 0.000206, 0.000001, -0.000022, -0.000149, 0.001881, 0.002240, 0.001697, 0.001362, -0.000499, 0.001301, 0.001188, 0.000001, 0.003252, 0.003831, 0.005751, 0.004550, 0.003505, 0.000773, 0.002678, 0.000899, 0.002498, 0.000001, -0.004659, 0.000886, 0.003119, 0.000687, -0.002461, 0.002221, 0.002514, 0.001947, -0.002433, 0.000001, 0.001073, 0.001752, 0.003010, 0.001211, 0.000388, 0.000863, 0.001178, 0.000789, -0.001399, 0.000001, 0.000205, 0.001162, 0.003878, 0.001127, -0.000113, 0.000894, 0.004213, 0.003580, -0.000862, 0.000001, 0.002028, 0.000328, 0.002142, 0.002151, 0.003311, 0.004727, 0.000544, 0.001512, 0.004504, 0.000001, 0.003240, 0.001223, 0.000122, 0.003409, 0.002319, -0.000311, 0.002423, 0.001904, 0.002763, 0.000001, 0.002457, 0.004395, 0.001497, 0.003261, 0.003175, -0.000796, -0.002187, -0.005049, -0.000808, 0.000001, 0.001411, -0.007207, -0.004307, -0.002954, -0.002784, -0.008197, -0.007120, -0.003358, -0.000417, 0.000001, -0.001861, -0.002850, -0.003753, -0.000027, 0.000478, -0.002952, -0.002015, 0.000755, 0.000026, 0.000001, 0.002233, 0.001924, 0.003324, 0.001666, 0.003546, 0.004335, 0.001110, 0.001981, 0.004026, 0.000001, 0.003110, 0.001318, 0.004912, 0.001457, 0.004372, 0.001068, 0.004511, 0.001843, 0.001591, 0.000001, -0.002440, 0.002397, 0.001644, 0.001310, 0.006075, 0.005286, -0.001320, -0.002921, 0.001384, 0.000001, -0.001141, 0.001257, 0.004107, -0.001166, 0.000731, 0.000582, 0.000841, 0.000823, -0.001287, 0.000001, 0.002330, 0.000239, 0.000076, 0.001253, 0.002498, 0.001380, 0.000790, -0.000422, -0.003690, 0.000001, 0.002782, 0.003223, 0.006799, 0.004657, 0.005400, 0.007635, 0.004487, 0.002847, 0.002177, 0.000001, 0.001279, 0.000078, 0.007351, 0.006869, 0.003812, -0.003131, -0.002163, 0.000128, 0.000747, 0.000001, 0.000917, -0.001783, 0.008852, 0.000936, 0.002766, -0.001197, 0.001026, 0.000717, 0.000241, 0.000001, -0.003681, -0.003294, 0.002766, -0.000670, 0.000806, -0.002250, -0.000930, -0.005263, -0.002562, 0.000001, -0.001819, -0.000583, 0.001504, -0.002930, 0.000433, 0.001269, 0.005592, -0.003466, -0.002564, 0.000001, 0.000380, 0.002588, 0.001580, 0.005418, 0.005787, 0.002155, 0.004842, 0.000479, 0.000280, 0.000001, 0.002054, 0.000518, 0.000467, -0.001042, 0.001667, -0.000430, 0.002544, 0.003764, 0.002029, 0.000001, 0.001548, 0.003099, 0.003277, -0.001722, 0.005313, 0.000188, 0.001221, 0.001594, 0.003814, 0.000001, -0.000803, 0.000123, 0.000917, -0.000079, 0.006646, 0.000491, 0.000030, -0.002933, -0.003043, 0.000001, 0.000684, 0.000146, 0.001174, -0.001606, 0.002326, -0.004046, -0.000948, -0.001330, -0.001827, 0.000001, 0.002958, 0.004677, 0.001794, 0.005219, 0.010358, -0.000637, -0.000629, -0.001309, 0.001208, 0.000001, 0.000997, 0.000868, 0.002267, 0.004287, 0.002542, -0.002214, 0.004206, 0.003080, 0.001635, 0.000001, 0.000611, -0.001805, 0.005356, 0.000286, 0.006386, 0.005667, 0.002407, 0.003353, 0.004862, 0.000001, -0.001080, -0.004358, 0.000997, 0.000436, 0.004862, 0.002954, 0.000925, -0.005203, -0.003490, 0.000001, 0.002149, 0.001362, 0.001120, 0.000612, 0.002779, 0.001176, 0.007557, -0.001629, 0.000783, 0.000001, 0.001672, 0.001085, -0.000173, -0.003165, 0.004466, 0.004255, 0.006542, 0.000005, 0.001857, 0.000001, 0.000105, 0.002593, 0.005408, 0.005389, 0.002535, 0.006047, 0.006146, 0.004795, 0.002615, 0.000001, 0.000586, 0.002223, 0.007694, 0.007286, 0.000911, 0.000990, 0.001123, 0.001785, 0.001914, 0.000001, -0.001107, -0.001791, 0.001610, 0.006592, 0.001775, 0.003649, -0.001880, -0.003373, 0.000155, 0.000001, 0.001158, 0.001900, -0.002100, 0.000457, -0.000318, -0.000385, 0.006854, 0.004111, 0.001211, 0.000001, 0.002749, 0.005680, 0.011429, 0.005637, 0.003378, 0.001310, 0.006918, 0.002079, 0.002441, 0.000001, 0.002692, 0.003334, 0.003302, 0.005536, 0.006395, 0.005936, 0.000731, 0.004020, 0.002108, 0.000001, 0.000719, -0.000392, 0.010401, 0.005627, 0.004034, 0.006975, -0.000328, 0.002554, 0.000974, 0.000001, -0.003498, -0.001309, 0.002848, 0.005650, 0.007147, 0.004346, 0.001649, -0.000069, -0.001907, 0.000001, 0.000849, 0.003991, -0.002191, 0.002407, -0.002785, -0.001445, 0.007981, 0.000526, 0.000503, 0.000001, 0.001541, 0.005704, 0.004596, 0.007923, 0.007733, -0.002071, 0.004574, 0.006208, 0.003944, 0.000001, 0.000413, -0.000235, 0.000736, 0.002542, 0.006121, 0.001718, -0.002101, 0.000198, 0.002505, 0.000001, 0.000269, 0.001073, 0.007682, 0.002215, 0.003655, 0.003981, 0.005614, 0.000551, 0.000885, 0.000001, -0.002331, -0.000720, 0.006033, 0.006047, 0.007456, 0.006966, 0.007125, -0.001210, -0.003184, 0.000001, 0.000718, 0.003371, 0.002187, 0.001637, -0.000203, 0.000526, 0.004128, 0.001566, 0.001834, 0.000001, 0.000483, 0.000435, -0.003668, -0.000805, 0.003760, -0.001223, 0.000889, -0.000620, -0.000482, 0.000001, 0.000787, 0.000724, 0.009103, 0.003963, 0.005500, 0.005039, 0.004201, 0.000481, 0.000884, 0.000001, 0.002426, 0.001999, 0.007538, -0.001396, 0.002969, 0.006314, 0.006033, 0.000037, 0.001792, 0.000001, -0.000797, 0.001155, 0.007657, 0.012427, 0.009125, 0.010494, 0.009792, 0.000864, 0.000131, 0.000001, 0.002264, 0.001529, 0.003564, 0.007330, 0.005232, 0.002615, 0.008451, 0.000594, 0.002386, 0.000001, 0.001377, 0.003464, 0.000607, 0.000883, -0.001393, -0.000143, 0.004405, -0.001006, 0.000195, 0.000001, -0.004191, -0.002636, 0.003497, 0.003336, 0.003425, 0.002367, -0.002862, -0.003141, -0.002990, 0.000001, 0.000781, 0.002507, 0.011999, 0.003432, 0.008712, 0.003733, 0.000124, 0.000165, 0.000988, 0.000001, -0.001410, -0.000873, 0.001321, 0.000149, 0.005186, 0.001721, 0.002756, -0.000683, -0.000655, 0.000001, 0.001667, 0.002924, -0.001156, 0.005412, 0.008536, 0.004820, 0.011527, 0.001641, -0.000144, 0.000001, -0.000816, -0.000951, -0.000521, 0.003737, 0.000303, 0.001365, -0.000160, 0.000523, -0.003763, 0.000001, -0.007017, -0.004939, -0.000670, -0.000194, -0.004617, -0.004821, 0.001522, -0.002237, -0.003237, 0.000001, 0.000473, 0.002212, 0.005442, -0.002943, 0.004419, 0.000969, 0.003734, 0.002012, 0.001796, 0.000001, 0.000729, 0.001534, 0.005608, 0.003022, 0.001764, -0.000798, 0.001725, 0.001637, 0.001072, 0.000001, 0.001301, -0.000327, 0.001035, -0.006152, 0.001646, 0.006695, 0.005611, 0.005982, 0.001799, 0.000001, -0.003555, -0.000282, 0.003307, 0.001451, -0.002747, 0.002807, -0.001771, -0.002887, -0.006402, 0.000001, -0.003431, -0.003885, -0.005706, -0.005244, 0.001813, -0.001086, 0.005126, 0.003536, -0.002508, 0.000001, 0.002468, 0.002079, 0.002529, 0.006024, 0.009062, 0.010052, 0.006677, 0.002504, 0.002326, 0.000001, 0.003764, 0.002239, 0.005027, 0.003851, 0.004092, 0.004634, 0.006646, 0.004619, 0.004194, 0.000001, 0.002442, 0.003112, 0.010606, 0.006980, 0.008258, 0.005351, 0.003725, 0.004979, 0.003157, 0.000001, 0.001253, -0.001053, 0.005306, -0.001576, -0.000464, -0.003314, 0.000696, -0.001263, -0.002666, 0.000001, -0.005460, -0.006719, -0.005396, -0.004859, -0.008564, -0.005847, -0.003099, 0.001206, -0.003464, 0.000001, -0.000067, -0.000489, -0.001150, 0.002075, 0.004476, 0.005218, -0.004213, 0.003209, 0.001969, 0.000001, -0.002975, -0.003811, -0.004218, 0.000879, 0.000434, 0.000112, -0.003883, 0.001278, -0.000367, 0.000001, 0.003445, 0.003257, -0.000705, 0.004212, 0.004805, 0.002921, 0.000608, 0.000892, 0.003664, 0.000001, 0.000901, 0.001112, 0.000235, -0.006813, -0.008004, -0.004113, -0.002650, -0.000636, 0.002355, 0.000001},
	{0.000926, -0.003753, 0.005311, 0.005236, -0.005142, -0.009001, -0.013325, -0.005653, 0.002298, 0.000002, 0.020863, 0.008904, -0.006903, 0.004473, -0.000285, -0.004128, -0.002184, 0.003861, 0.012543, 0.000002, 0.009344, 0.003520, 0.005562, 0.005871, 0.007379, 0.003923, 0.002870, 0.002978, 0.004856, 0.000002, 0.009819, 0.003846, 0.004036, -0.003122, -0.001026, -0.001887, -0.014136, -0.002542, 0.009708, 0.000002, -0.003608, -0.002768, -0.007098, -0.011940, -0.004290, -0.003834, -0.007989, -0.003881, -0.002534, 0.000002, -0.001395, 0.000335, -0.003989, 0.002155, -0.006309, -0.007986, -0.011812, -0.004499, -0.006797, 0.000002, 0.006606, 0.012420, -0.000884, 0.000260, 0.001448, 0.004084, -0.000127, 0.001813, 0.003387, 0.000002, 0.004776, 0.006385, 0.004182, 0.003909, 0.003996, 0.004321, 0.002907, 0.002783, 0.003427, 0.000002, 0.004742, 0.002040, 0.003031, 0.004485, 0.000954, 0.002761, -0.001606, 0.007705, 0.004988, 0.000002, -0.006430, -0.008358, -0.008200, -0.002551, -0.002771, 0.003570, 0.001273, 0.000486, -0.002499, 0.000002, -0.000406, 0.002142, -0.004725, 0.003738, -0.003131, -0.001565, 0.000819, 0.000031, 0.001735, 0.000002, 0.002676, 0.008939, 0.001075, 0.003201, 0.001119, 0.001832, 0.003736, 0.003643, 0.001031, 0.000002, -0.001447, 0.001421, 0.000042, -0.000014, 0.000938, -0.002250, 0.002313, 0.001701, -0.000829, 0.000002, -0.001418, -0.000097, 0.001917, 0.002004, 0.003658, 0.005373, 0.002514, 0.007702, 0.002381, 0.000002, 0.002251, -0.000049, 0.003498, 0.003449, 0.001678, 0.001244, -0.002119, 0.000172, 0.002624, 0.000002, 0.005570, 0.006144, 0.010961, 0.004416, 0.006644, 0.002890, 0.006326, 0.003016, 0.006701, 0.000002, -0.010062, 0.000613, 0.002642, -0.000436, -0.003005, 0.005134, 0.008910, 0.002670, -0.007366, 0.000002, -0.001235, 0.000700, 0.003287, 0.003152, 0.000376, -0.000484, 0.002069, -0.001968, -0.005793, 0.000002, 0.000055, 0.003277, 0.010176, 0.006567, 0.000795, -0.000670, 0.008185, 0.004154, -0.004230, 0.000002, 0.005699, 0.002322, 0.005205, 0.005750, 0.002851, 0.005563, 0.000725, 0.001401, 0.009767, 0.000002, 0.007076, 0.002831, -0.000221, 0.004209, 0.007365, -0.000137, 0.007609, 0.005554, 0.005286, 0.000002, 0.005860, 0.005296, 0.000467, 0.002952, 0.005886, -0.000369, -0.008036, -0.012820, -0.002857, 0.000002, 0.000143, -0.011871, -0.006003, -0.003400, -0.002795, -0.007385, -0.008138, -0.005552, -0.002982, 0.000002, -0.003147, -0.009181, -0.006560, 0.003832, 0.004305, -0.006380, -0.004488, 0.000254, -0.000585, 0.000002, 0.003520, 0.005142, 0.008725, 0.002022, 0.014514, 0.008089, 0.000774, 0.007137, 0.008541, 0.000002, 0.006432, 0.004558, 0.010612, 0.004743, 0.010169, 0.002286, 0.007392, 0.002815, 0.005116, 0.000002, -0.002449, -0.000111, 0.008205, 0.005655, 0.008740, 0.004464, -0.004592, -0.007661, 0.003095, 0.000002, -0.000441, 0.001104, 0.014152, -0.003251, -0.004764, -0.002833, 0.000871, 0.000752, 0.001096, 0.000002, 0.001805, -0.001135, -0.004053, -0.002410, 0.004816, 0.004515, 0.000190, -0.005673, -0.005528, 0.000002, 0.006436, 0.007693, 0.009467, 0.007120, 0.011600, 0.014819, 0.011320, 0.005510, 0.003997, 0.000002, 0.002047, -0.000474, 0.009715, 0.016576, 0.008593, -0.001145, -0.000760, -0.001254, 0.002127, 0.000002, -0.003110, -0.001652, 0.017129, 0.000971, 0.002043, -0.000426, 0.001250, -0.000671, 0.001679, 0.000002, -0.004847, -0.008398, 0.005402, -0.002421, 0.002323, -0.007804, 0.001536, -0.007183, -0.006896, 0.000002, -0.003818, -0.003049, -0.000596, -0.006109, -0.004030, 0.001078, 0.012421, -0.004558, -0.007322, 0.000002, -0.000434, 0.003077, 0.006283, 0.007917, 0.006958, 0.007486, 0.009425, 0.001151, 0.000007, 0.000002, 0.001705, 0.000409, -0.001334, 0.000359, 0.004189, 0.002062, 0.001442, 0.005002, 0.004080, 0.000002, 0.002728, 0.006491, 0.004507, 0.000135, 0.006932, -0.000741, 0.006148, 0.003462, 0.006262, 0.000002, -0.003367, -0.000998, 0.004520, -0.000390, 0.014682, 0.004240, 0.003496, -0.005589, -0.003256, 0.000002, 0.001298, -0.000317, 0.003144, -0.004768, -0.000701, -0.006717, -0.002735, -0.005454, -0.003352, 0.000002, 0.005443, 0.006029, 0.000927, 0.010953, 0.013663, -0.000470, -0.001423, -0.000762, 0.003066, 0.000002, 0.002464, 0.002934, 0.003595, 0.011136, 0.005214, -0.001395, 0.005710, 0.008819, 0.005371, 0.000002, 0.003257, -0.003060, 0.005382, 0.001616, 0.009937, 0.002642, 0.001731, 0.006560, 0.007293, 0.000002, -0.006790, -0.014367, 0.000699, 0.001626, 0.014272, 0.004445, -0.000106, -0.016749, -0.012018, 0.000002, 0.003196, 0.003195, 0.000027, -0.003160, 0.005986, 0.001757, 0.011579, -0.005413, 0.001796, 0.000002, 0.003880, 0.005479, 0.000161, -0.001208, 0.006836, 0.008198, 0.013293, 0.001516, 0.004385, 0.000002, 0.001746, 0.007865, 0.007737, 0.003357, 0.006785, 0.012180, 0.007286, 0.009433, 0.006835, 0.000002, 0.001227, 0.001552, 0.017853, 0.012141, -0.000776, 0.003152, -0.000824, 0.005605, 0.003692, 0.000002, -0.001790, -0.008075, -0.002125, 0.009300, 0.001053, 0.004839, -0.005927, -0.007100, -0.003235, 0.000002, 0.003280, 0.002147, -0.005373, -0.001107, -0.000140, -0.000781, 0.015650, 0.005583, 0.001658, 0.000002, 0.006615, 0.011734, 0.014160, 0.014816, 0.009365, -0.001171, 0.012552, 0.006371, 0.005396, 0.000002, 0.005590, 0.003857, 0.007131, 0.009744, 0.013717, 0.009578, -0.004650, 0.007295, 0.004469, 0.000002, 0.000355, -0.000635, 0.013119, 0.005644, 0.007443, 0.009339, -0.000967, 0.007858, 0.003257, 0.000002, -0.008222, -0.003409, 0.001753, 0.008083, 0.013431, 0.005859, -0.001835, 0.000366, -0.003903, 0.000002, 0.002170, 0.010322, -0.002660, -0.000738, 0.001859, -0.003750, 0.009502, 0.000960, 0.001852, 0.000002, 0.006495, 0.011294, 0.010148, 0.013147, 0.012281, -0.002043, 0.003717, 0.008714, 0.009383, 0.000002, 0.002956, 0.002661, 0.003429, 0.005672, 0.008689, 0.004587, -0.015021, 0.002228, 0.003879, 0.000002, 0.000125, 0.000874, 0.012557, -0.000485, 0.000678, 0.008971, 0.009740, 0.001567, 0.001622, 0.000002, -0.007005, 0.000563, 0.013523, 0.013555, 0.019949, 0.008152, 0.016756, 0.000975, -0.008321, 0.000002, 0.002252, 0.006319, 0.006339, 0.003895, 0.000701, -0.000501, 0.009424, 0.004671, 0.001871, 0.000002, 0.001425, -0.000155, -0.011289, -0.003057, 0.001935, 0.000014, 0.006324, 0.003345, 0.000417, 0.000002, 0.000385, -0.000161, 0.009918, 0.005699, 0.009534, 0.004285, 0.002293, -0.001065, 0.001936, 0.000002, 0.004542, 0.004441, 0.013222, -0.007806, 0.001978, 0.012034, 0.011586, -0.001000, 0.003138, 0.000002, -0.002385, 0.002696, 0.012704, 0.016646, 0.017302, 0.014677, 0.016141, 0.002385, 0.000115, 0.000002, 0.004984, 0.006181, 0.012164, 0.017640, 0.006612, -0.000368, 0.014683, 0.001930, 0.004566, 0.000002, 0.005537, 0.005938, -0.003164, -0.003006, -0.000800, 0.005076, 0.002871, -0.002804, -0.001354, 0.000002, -0.006407, -0.005066, 0.008044, 0.005957, 0.008338, 0.004832, -0.004529, -0.007925, -0.003333, 0.000002, 0.003005, 0.005555, 0.012664, 0.004862, 0.010472, 0.003362, 0.000711, 0.000773, 0.002641, 0.000002, -0.000297, -0.002667, -0.004077, -0.003583, 0.008344, 0.003736, -0.002290, -0.000153, 0.000041, 0.000002, 0.005064, 0.006287, -0.004047, 0.003540, 0.008000, 0.008922, 0.013984, 0.004373, 0.000829, 0.000002, -0.001806, -0.003221, -0.005752, 0.002592, 0.001235, 0.002957, -0.004276, -0.002285, -0.007577, 0.000002, -0.013091, -0.013040, -0.004430, -0.007092, -0.007457, -0.010117, -0.000159, -0.002233, -0.005526, 0.000002, 0.000033, 0.003240, 0.008046, -0.005430, 0.005344, 0.001493, 0.008914, 0.006995, 0.002272, 0.000002, 0.001736, 0.001312, 0.008329, 0.000030, 0.002487, -0.007349, 0.005003, 0.001381, 0.001951, 0.000002, 0.003351, 0.002603, 0.004230, -0.013770, 0.002860, 0.005774, 0.011705, 0.010692, 0.003466, 0.000002, -0.006882, -0.002519, 0.000557, 0.001106, 0.003982, 0.001237, -0.004742, -0.007340, -0.010136, 0.000002, -0.007178, -0.010891, -0.008201, -0.007121, 0.005224, 0.000592, 0.006730, 0.008519, 0.001708, 0.000002, 0.004122, -0.000494, 0.005994, 0.013526, 0.022136, 0.018216, 0.020829, 0.006758, 0.006927, 0.000002, 0.008044, 0.000364, 0.008658, 0.003104, 0.009250, 0.006501, 0.014199, 0.005296, 0.008141, 0.000002, 0.003495, 0.010057, 0.024249, 0.015282, 0.019638, 0.013562, 0.008969, 0.006892, 0.005913, 0.000002, 0.003368, 0.007536, 0.008177, -0.002188, 0.003031, -0.009044, -0.004372, -0.002875, -0.001166, 0.000002, -0.012744, -0.009724, -0.008005, -0.012664, -0.011872, -0.014339, -0.012639, 0.002837, -0.000019, 0.000002, 0.006347, 0.003253, -0.004096, 0.005739, 0.008762, 0.009643, -0.008450, 0.004400, 0.006901, 0.000002, -0.004829, -0.010753, -0.010375, 0.001357, 0.005976, 0.000338, -0.014363, -0.002637, -0.003871, 0.000002, 0.010854, 0.002665, -0.001896, 0.007132, 0.012172, 0.008641, 0.000271, 0.004712, 0.013199, 0.000002, 0.003958, 0.000912, -0.006683, -0.017993, -0.011581, -0.007912, -0.001848, 0.002059, 0.001177, 0.000002},
	{0.002772, -0.008829, 0.003069, 0.005088, -0.009791, -0.014718, -0.019206, -0.008303, 0.001954, 0.000000, 0.029146, 0.006701, -0.018873, 0.004089, -0.002571, -0.001928, -0.002152, 0.007427, 0.020201, 0.000000, 0.017768, 0.005344, 0.009878, 0.010519, 0.016129, 0.011040, 0.003271, 0.004903, 0.012102, 0.000000, 0.017238, 0.006976, 0.007655, -0.003551, 0.002265, -0.005484, -0.022303, -0.005014, 0.014392, 0.000000, -0.007909, -0.003964, -0.010247, -0.011612, -0.006338, -0.006640, -0.014196, -0.008165, -0.004935, 0.000000, -0.004696, -0.002960, -0.001317, 0.000298, -0.009561, -0.013162, -0.021890, -0.009055, -0.009084, 0.000000, 0.013130, 0.021083, -0.004331, 0.000806, 0.002401, 0.007302, 0.001085, 0.004359, 0.006988, 0.000000, 0.009885, 0.010432, 0.008938, 0.008200, 0.008196, 0.006545, 0.007088, 0.004809, 0.007936, 0.000000, 0.007347, 0.004937, 0.004870, 0.007040, 0.003974, 0.002957, -0.004358, 0.015800, 0.013523, 0.000000, -0.008747, -0.013225, -0.015183, -0.001544, 0.000836, 0.003070, 0.001631, -0.003579, -0.005402, 0.000000, -0.002945, -0.001545, -0.007994, 0.004458, -0.004626, -0.000126, 0.002474, -0.000996, 0.002747, 0.000000, 0.005353, 0.011909, -0.001771, 0.003169, 0.002667, 0.005415, 0.006491, 0.007112, 0.003036, 0.000000, -0.001579, 0.002509, 0.001227, 0.001755, 0.001909, -0.002022, 0.003413, 0.001180, -0.002720, 0.000000, -0.000720, 0.001674, 0.005352, 0.004453, 0.005844, 0.007571, 0.004533, 0.013098, 0.005470, 0.000000, 0.005006, -0.001335, 0.005965, 0.006827, 0.000538, 0.004525, -0.004904, 0.000606, 0.004563, 0.000000, 0.007763, 0.007299, 0.017334, 0.007086, 0.011575, 0.004521, 0.009761, 0.003816, 0.013775, 0.000000, -0.018262, 0.000946, 0.002397, -0.005228, -0.004341, 0.006862, 0.013178, 0.006330, -0.012086, 0.000000, -0.007604, -0.002799, 0.003404, 0.003829, 0.001755, -0.003345, 0.000924, -0.004520, -0.012205, 0.000000, -0.001139, 0.006946, 0.014230, 0.011345, 0.001249, -0.004270, 0.011687, 0.004744, -0.010041, 0.000000, 0.011135, 0.002822, 0.010249, 0.007853, 0.008555, 0.005974, 0.002255, 0.002803, 0.015468, 0.000000, 0.007165, 0.006679, 0.000540, 0.007710, 0.009311, -0.005147, 0.011708, 0.007078, 0.007789, 0.000000, 0.009019, 0.004143, -0.012680, -0.004152, 0.010991, -0.003825, -0.012436, -0.020761, -0.006241, 0.000000, 0.003128, -0.013558, -0.007404, -0.006750, -0.002260, -0.005215, -0.008374, -0.006987, -0.003181, 0.000000, -0.008945, -0.015628, -0.009533, 0.006306, 0.007963, -0.010041, -0.014448, -0.002913, -0.001844, 0.000000, 0.005719, 0.006508, 0.015960, 0.001860, 0.025077, 0.014575, 0.000199, 0.012010, 0.010854, 0.000000, 0.010583, 0.003784, 0.010505, 0.012811, 0.016607, 0.003682, 0.009450, 0.002662, 0.007813, 0.000000, -0.001036, -0.004355, 0.010623, 0.009545, 0.008921, 0.005442, -0.009357, -0.013586, 0.002463, 0.000000, 0.000439, -0.002630, 0.020949, -0.007389, -0.009266, -0.006283, 0.002155, -0.004136, 0.000618, 0.000000, 0.001374, -0.005804, -0.011207, -0.000355, 0.003935, 0.005564, -0.005576, -0.009750, -0.005490, 0.000000, 0.009666, 0.010956, 0.020651, 0.010589, 0.019772, 0.020567, 0.013065, 0.007622, 0.005212, 0.000000, 0.003289, 0.002771, 0.014235, 0.016892, 0.010115, -0.000660, -0.000447, -0.000438, 0.003402, 0.000000, -0.005013, -0.002026, 0.024739, -0.001873, 0.000222, -0.000621, 0.000835, -0.001732, 0.002150, 0.000000, -0.006927, -0.012239, 0.002121, 0.000043, 0.003126, -0.007406, -0.001938, -0.011389, -0.009004, 0.000000, -0.007713, -0.002856, -0.001329, -0.012511, -0.010557, 0.000850, 0.018241, -0.003795, -0.012229, 0.000000, 0.000571, 0.004167, 0.011202, 0.011519, 0.007131, 0.006589, 0.012470, 0.004979, -0.000444, 0.000000, 0.001277, -0.000231, 0.000678, 0.002137, 0.007624, 0.001895, 0.002279, 0.009399, 0.003091, 0.000000, 0.003262, 0.006062, 0.007587, 0.003476, 0.010086, -0.006160, 0.008515, 0.007393, 0.007694, 0.000000, -0.006379, -0.004649, 0.006124, -0.000911, 0.026398, 0.005717, 0.002958, -0.008778, -0.004680, 0.000000, -0.000490, 0.002241, -0.000845, -0.007948, 0.000373, -0.006649, -0.002451, -0.007624, -0.001903, 0.000000, 0.006218, 0.010758, 0.005685, 0.015709, 0.017537, 0.002169, -0.001927, 0.001104, 0.005958, 0.000000, 0.005659, 0.005525, 0.002554, 0.013029, 0.006629, 0.000238, 0.005972, 0.013377, 0.009030, 0.000000, 0.006449, -0.002005, 0.005407, 0.003884, 0.014625, 0.000723, 0.001331, 0.014669, 0.005588, 0.000000, -0.010802, -0.020393, 0.000983, 0.001322, 0.018357, 0.007480, 0.002213, -0.025195, -0.019064, 0.000000, 0.003191, 0.004749, -0.003774, -0.003918, 0.010965, 0.003063, 0.012998, -0.007985, 0.002299, 0.000000, 0.007954, 0.011401, -0.000630, 0.001267, 0.003809, 0.008550, 0.017075, 0.006956, 0.009131, 0.000000, 0.004195, 0.015156, 0.014905, 0.007827, 0.011412, 0.016828, 0.007974, 0.012710, 0.010860, 0.000000, 0.001374, 0.003751, 0.028628, 0.015592, 0.003250, 0.000478, 0.000410, 0.006767, 0.005838, 0.000000, -0.005818, -0.010441, -0.002885, 0.009104, 0.004385, 0.002626, -0.010566, -0.007403, -0.008553, 0.000000, 0.006037, 0.002155, -0.009349, -0.004095, 0.002986, -0.004118, 0.023374, 0.008165, 0.003525, 0.000000, 0.010411, 0.017200, 0.013296, 0.017608, 0.016864, 0.000136, 0.022871, 0.009558, 0.008504, 0.000000, 0.008677, 0.006087, 0.008265, 0.015535, 0.023451, 0.007024, -0.011617, 0.005133, 0.007046, 0.000000, 0.000358, -0.001953, 0.016157, 0.012565, 0.008934, 0.010408, 0.003569, 0.009818, 0.005827, 0.000000, -0.009823, -0.003670, -0.002710, 0.007669, 0.012868, 0.003502, -0.001826, 0.001328, -0.002764, 0.000000, 0.005328, 0.015826, -0.005559, -0.005090, 0.002798, -0.008630, 0.009326, -0.001841, 0.003393, 0.000000, 0.010947, 0.015368, 0.009676, 0.011714, 0.016254, -0.001028, -0.003546, 0.010758, 0.014565, 0.000000, 0.005275, 0.002472, 0.010018, 0.010917, 0.009715, 0.005657, -0.019291, 0.000716, 0.005045, 0.000000, 0.000686, 0.000477, 0.007006, 0.000009, 0.001147, 0.003298, 0.009899, 0.005208, 0.002515, 0.000000, -0.013087, -0.000634, 0.021424, 0.018282, 0.025165, 0.012548, 0.025148, 0.001003, -0.013489, 0.000000, 0.003723, 0.009189, 0.005191, 0.000780, 0.000600, -0.002490, 0.007951, 0.005634, 0.002273, 0.000000, 0.001335, -0.001415, -0.017525, -0.008077, 0.002085, 0.006876, 0.008049, 0.004503, 0.000762, 0.000000, 0.001060, -0.004891, 0.008778, 0.008756, 0.011138, -0.000453, 0.004655, -0.002562, 0.001055, 0.000000, 0.005601, 0.010356, 0.016598, -0.011329, -0.000678, 0.014966, 0.013618, -0.002784, 0.005055, 0.000000, -0.003483, 0.002180, 0.011345, 0.019807, 0.022689, 0.019172, 0.015203, 0.003133, -0.000033, 0.000000, 0.008889, 0.009336, 0.014008, 0.026162, 0.001379, -0.006798, 0.017510, 0.001922, 0.004947, 0.000000, 0.009289, 0.005037, -0.003329, -0.009983, 0.004330, 0.012818, -0.001973, -0.006954, -0.000957, 0.000000, -0.008814, -0.008290, 0.007892, 0.007654, 0.012673, 0.004437, -0.009687, -0.011040, -0.003867, 0.000000, 0.006802, 0.008122, 0.010373, -0.002141, 0.005908, 0.006055, -0.002034, 0.004112, 0.004737, 0.000000, 0.000264, -0.000312, -0.001702, -0.007298, -0.004327, -0.000008, -0.005130, 0.002521, -0.000270, 0.000000, 0.007052, 0.009230, -0.008737, 0.003350, 0.003069, 0.005476, 0.018271, 0.008832, 0.003146, 0.000000, -0.001709, -0.005459, -0.011167, -0.004959, 0.005916, 0.006303, -0.007594, -0.002875, -0.012080, 0.000000, -0.017668, -0.014609, -0.005823, -0.015341, -0.005598, -0.012081, -0.001754, 0.000640, -0.008391, 0.000000, 0.002361, 0.002603, 0.005154, -0.009042, 0.009136, 0.003928, 0.013683, 0.015427, 0.005141, 0.000000, 0.002072, -0.000330, 0.003756, -0.004092, -0.001258, -0.010120, 0.000620, -0.000233, 0.002311, 0.000000, 0.006169, 0.007528, 0.006512, -0.014250, 0.004799, 0.005953, 0.013301, 0.012873, 0.004738, 0.000000, -0.012641, -0.004970, -0.002860, 0.003556, 0.012204, 0.002138, -0.006245, -0.008944, -0.015834, 0.000000, -0.012155, -0.018195, -0.011450, -0.010912, 0.002812, 0.001511, 0.005627, 0.015464, 0.000863, 0.000000, 0.007144, 0.001717, 0.009733, 0.021466, 0.033848, 0.026273, 0.030117, 0.012920, 0.012018, 0.000000, 0.010414, -0.003080, 0.007600, 0.001277, 0.010653, 0.007612, 0.017210, 0.003549, 0.009006, 0.000000, 0.006638, 0.019751, 0.033373, 0.023031, 0.028255, 0.022470, 0.014763, 0.011163, 0.008166, 0.000000, 0.003189, 0.013646, 0.011525, -0.001509, 0.002263, -0.010849, -0.010225, -0.004760, -0.006099, 0.000000, -0.019512, -0.010079, -0.007713, -0.021092, -0.014039, -0.020249, -0.019432, 0.003618, 0.007649, 0.000000, 0.015845, 0.012572, -0.013813, 0.008234, 0.011097, 0.013943, -0.010637, 0.007463, 0.009933, 0.000000, -0.005350, -0.016282, -0.020127, 0.003909, 0.012269, 0.000980, -0.026198, -0.007700, -0.004832, 0.000000, 0.015834, 0.004233, -0.002544, 0.010728, 0.016704, 0.014424, -0.006510, 0.008618, 0.015592, 0.000000, 0.005140, -0.002657, -0.013254, -0.025077, -0.015133, -0.011461, 0.004704, 0.006298, -0.004574, 0.000000},
	{0.005930, -0.008666, 0.000119, 0.001650, -0.011471, -0.018359, -0.024232, -0.012193, 0.004105, 0.000003, 0.034896, 0.002446, -0.030123, -0.002902, -0.006697, 0.001693, -0.002412, 0.011767, 0.029760, 0.000003, 0.027495, 0.006366, 0.014921, 0.018914, 0.025538, 0.020600, 0.002854, 0.005445, 0.021951, 0.000003, 0.025583, 0.015163, 0.012490, 0.000408, 0.001460, -0.010268, -0.031685, -0.012371, 0.020998, 0.000003, -0.011134, -0.005394, -0.014130, -0.011908, -0.009800, -0.014011, -0.016592, -0.005676, -0.006070, 0.000003, -0.007565, -0.004243, -0.002547, -0.002539, -0.012545, -0.018300, -0.030517, -0.013607, -0.007443, 0.000003, 0.021648, 0.031165, -0.012957, 0.004405, 0.005353, 0.008984, 0.006109, 0.010569, 0.012790, 0.000003, 0.012295, 0.017415, 0.012136, 0.013306, 0.012066, 0.011560, 0.011476, 0.009405, 0.010291, 0.000003, 0.012337, 0.009683, 0.009288, 0.007741, 0.008679, 0.004252, -0.006300, 0.026090, 0.024862, 0.000003, -0.007587, -0.019091, -0.026156, -0.003729, 0.001622, 0.003106, -0.001656, -0.003099, -0.009013, 0.000003, -0.003915, -0.004024, -0.003616, 0.000918, -0.010655, 0.005552, 0.005580, -0.001855, 0.004195, 0.000003, 0.009538, 0.014628, -0.005081, 0.002054, 0.007921, 0.009215, 0.013545, 0.011110, 0.004377, 0.000003, -0.001747, 0.003302, 0.003985, 0.003658, 0.004082, -0.001767, 0.005871, -0.000407, -0.006313, 0.000003, -0.000674, 0.004975, 0.013045, 0.008052, 0.010661, 0.010359, 0.002494, 0.016044, 0.010052, 0.000003, 0.008916, -0.001994, 0.010610, 0.009327, 0.000426, 0.006796, -0.005989, -0.000838, 0.011107, 0.000003, 0.010231, 0.009058, 0.023041, 0.008506, 0.012430, 0.008639, 0.015728, 0.006516, 0.020054, 0.000003, -0.022409, -0.001883, 0.004400, -0.007574, -0.003067, 0.007176, 0.019094, 0.008986, -0.018480, 0.000003, -0.011508, -0.005294, 0.003907, 0.000459, 0.003178, -0.007091, 0.000532, -0.007587, -0.018223, 0.000003, -0.004406, 0.010192, 0.022480, 0.012491, 0.003866, -0.005758, 0.012622, 0.004145, -0.012509, 0.000003, 0.018762, 0.004362, 0.014641, 0.012293, 0.010322, 0.005156, 0.002112, 0.002836, 0.018866, 0.000003, 0.010323, 0.007869, 0.004045, 0.013799, 0.013555, -0.010660, 0.012649, 0.008536, 0.009526, 0.000003, 0.011884, 0.002841, -0.016474, -0.012376, 0.010325, -0.008860, -0.021799, -0.026830, -0.012600, 0.000003, 0.002068, -0.015125, -0.009298, -0.012279, -0.002947, -0.009572, -0.007472, -0.004977, -0.003545, 0.000003, -0.018086, -0.026383, -0.014290, 0.003633, 0.009358, -0.010467, -0.019640, -0.003244, -0.002619, 0.000003, 0.008432, 0.007397, 0.025347, -0.001012, 0.032783, 0.018757, -0.000818, 0.014310, 0.014442, 0.000003, 0.013705, 0.001408, 0.011134, 0.018302, 0.021892, 0.009730, 0.012568, 0.004688, 0.011446, 0.000003, 0.003366, -0.002459, 0.016234, 0.011576, 0.005765, 0.006160, -0.012024, -0.019623, 0.003915, 0.000003, 0.002368, -0.002562, 0.018953, -0.008745, -0.012797, -0.009898, -0.004751, -0.004742, 0.001900, 0.000003, 0.004037, -0.004745, -0.012030, -0.004916, 0.000830, 0.007329, -0.008181, -0.011670, -0.002461, 0.000003, 0.011713, 0.015357, 0.029840, 0.015544, 0.023843, 0.022152, 0.011741, 0.011808, 0.007586, 0.000003, 0.003273, 0.003238, 0.015573, 0.014508, 0.010041, -0.005606, -0.000587, 0.001373, 0.006695, 0.000003, -0.005722, -0.003388, 0.029267, -0.013663, -0.004001, -0.003789, 0.003045, -0.001220, 0.005912, 0.000003, -0.008432, -0.016858, -0.001044, -0.000756, -0.000333, -0.011710, -0.006619, -0.014915, -0.007823, 0.000003, -0.006977, -0.001912, -0.003143, -0.018993, -0.016253, -0.001362, 0.025194, -0.001476, -0.012711, 0.000003, 0.004334, 0.002117, 0.015096, 0.010892, 0.012157, 0.007805, 0.014540, 0.004950, -0.002634, 0.000003, 0.000203, -0.000198, 0.004118, 0.001149, 0.011243, 0.001138, 0.003688, 0.012527, 0.001493, 0.000003, 0.002017, 0.005600, 0.010556, 0.003011, 0.010519, -0.009258, 0.009222, 0.014657, 0.012528, 0.000003, -0.007373, -0.005595, 0.003283, 0.000619, 0.030094, 0.007550, -0.005597, -0.012037, -0.004436, 0.000003, 0.000985, 0.001359, -0.003125, -0.010600, -0.002735, -0.002960, -0.002132, -0.009010, -0.001150, 0.000003, 0.005158, 0.014226, 0.009911, 0.019398, 0.019581, 0.007064, -0.002404, -0.001028, 0.008750, 0.000003, 0.007877, 0.007030, 0.004122, 0.015107, 0.010051, -0.004792, 0.005556, 0.015784, 0.013307, 0.000003, 0.009433, -0.005909, 0.003280, 0.005011, 0.019256, 0.001281, 0.002753, 0.019568, 0.006207, 0.000003, -0.019503, -0.023289, 0.004540, 0.003469, 0.023124, 0.009440, 0.003925, -0.032338, -0.027980, 0.000003, 0.003284, 0.005810, -0.005486, -0.006485, 0.018599, 0.001323, 0.013795, -0.013235, 0.003961, 0.000003, 0.014784, 0.017911, -0.001128, 0.001705, 0.005616, 0.010632, 0.022112, 0.009043, 0.014844, 0.000003, 0.007627, 0.020946, 0.019217, 0.011665, 0.022090, 0.018600, 0.008845, 0.016517, 0.015489, 0.000003, 0.004591, 0.004551, 0.030732, 0.013911, 0.007503, -0.000828, 0.005374, 0.010117, 0.008479, 0.000003, -0.011097, -0.017909, -0.005622, 0.006257, 0.007857, -0.002076, -0.016291, -0.012813, -0.014585, 0.000003, 0.009605, 0.006129, -0.010167, -0.005861, 0.005637, -0.009577, 0.024279, 0.011580, 0.008085, 0.000003, 0.014906, 0.024343, 0.015403, 0.016555, 0.022025, 0.003395, 0.031336, 0.015326, 0.011893, 0.000003, 0.009933, 0.008904, 0.007244, 0.017939, 0.029694, 0.008441, -0.027994, -0.001757, 0.010136, 0.000003, 0.004727, -0.002759, 0.015797, 0.011730, 0.010431, 0.009983, 0.007968, 0.011353, 0.007831, 0.000003, -0.014053, -0.002968, -0.008914, 0.005823, 0.019643, -0.001223, -0.007206, 0.004667, -0.006568, 0.000003, 0.010022, 0.018052, -0.006948, -0.003050, 0.007438, -0.010239, 0.009831, -0.000052, 0.007276, 0.000003, 0.015156, 0.015664, -0.005903, 0.012986, 0.016958, -0.001624, -0.008536, 0.013752, 0.018597, 0.000003, 0.008522, 0.003075, 0.010469, 0.011888, 0.011422, 0.004265, -0.023786, -0.001509, 0.005458, 0.000003, 0.000943, 0.004888, 0.005249, -0.008997, -0.003907, -0.005712, 0.013419, 0.005240, 0.004163, 0.000003, -0.018953, 0.000619, 0.025123, 0.020678, 0.023684, 0.011884, 0.028085, 0.003366, -0.017720, 0.000003, 0.006276, 0.011773, 0.006080, -0.007529, -0.004511, -0.008981, 0.007439, 0.008034, 0.002579, 0.000003, 0.001471, -0.002849, -0.017531, -0.015242, -0.000667, 0.008892, 0.003369, 0.004346, 0.002265, 0.000003, 0.003407, -0.008600, 0.002039, 0.010558, 0.009874, -0.001104, 0.003421, -0.007265, -0.000702, 0.000003, 0.008286, 0.017912, 0.018927, -0.015751, -0.003483, 0.006204, 0.012326, -0.003879, 0.006203, 0.000003, -0.005931, -0.000778, 0.012567, 0.016244, 0.027621, 0.015066, 0.013638, 0.000703, -0.003869, 0.000003, 0.012509, 0.011981, 0.008088, 0.022008, -0.002423, -0.011991, 0.017273, 0.004636, 0.005971, 0.000003, 0.011040, 0.001988, -0.001717, -0.011208, 0.011114, 0.018013, -0.011326, -0.010122, -0.001158, 0.000003, -0.008972, -0.009523, 0.009138, 0.013295, 0.012935, -0.000251, -0.016094, -0.014346, -0.003534, 0.000003, 0.009414, 0.011021, 0.008102, -0.012513, 0.006261, 0.000909, -0.003892, 0.006915, 0.006066, 0.000003, -0.000212, 0.002849, -0.000846, -0.015114, -0.012332, -0.010625, -0.005076, 0.008044, -0.001486, 0.000003, 0.008585, 0.013997, -0.011001, 0.004381, 0.006629, -0.000712, 0.016025, 0.010970, 0.004562, 0.000003, -0.004108, -0.009356, -0.010039, -0.016317, 0.010242, 0.008325, -0.005543, -0.003418, -0.013703, 0.000003, -0.019363, -0.021114, -0.014731, -0.020061, -0.004870, -0.009416, -0.003379, 0.001895, -0.004370, 0.000003, 0.005810, 0.006284, 0.004292, -0.011963, 0.012579, 0.003495, 0.013837, 0.022719, 0.008036, 0.000003, 0.003042, -0.001568, 0.005003, -0.004395, -0.000309, -0.013857, -0.001342, -0.000109, 0.002411, 0.000003, 0.011021, 0.015082, 0.007002, -0.016457, 0.005991, 0.008156, 0.016205, 0.013595, 0.005921, 0.000003, -0.014596, -0.009820, -0.006427, 0.008737, 0.017503, 0.001198, -0.010032, -0.014079, -0.019501, 0.000003, -0.014808, -0.020103, -0.011621, -0.013496, 0.001155, 0.001738, 0.004441, 0.021162, 0.004062, 0.000003, 0.013025, 0.002451, 0.018092, 0.028402, 0.045355, 0.037247, 0.037033, 0.017260, 0.018410, 0.000003, 0.011174, -0.006176, 0.013695, 0.001900, 0.013747, 0.009390, 0.023664, 0.004907, 0.012823, 0.000003, 0.013452, 0.028568, 0.040138, 0.034718, 0.035829, 0.027726, 0.022407, 0.017579, 0.012469, 0.000003, 0.009108, 0.019429, 0.009750, -0.002548, 0.002578, -0.013048, -0.011033, -0.004833, -0.011174, 0.000003, -0.020110, -0.012841, -0.009193, -0.024475, -0.012958, -0.026935, -0.021638, 0.000969, 0.011993, 0.000003, 0.018696, 0.017324, -0.017446, 0.011048, 0.017797, 0.019104, -0.021848, 0.011374, 0.010941, 0.000003, -0.009628, -0.021378, -0.019711, 0.006837, 0.018144, 0.000577, -0.027981, -0.010926, -0.008245, 0.000003, 0.016702, 0.010027, -0.009893, 0.017309, 0.026274, 0.020185, -0.011558, 0.008415, 0.016135, 0.000003, 0.009188, -0.004759, -0.018352, -0.033077, -0.018061, -0.014055, 0.009230, 0.007781, -0.004004, 0.000003},
	{0.003936, -0.009990, -0.006501, -0.000740, -0.014641, -0.024105, -0.027785, -0.016741, 0.007264, -0.000002, 0.037065, -0.007394, -0.043255, -0.006050, -0.007192, 0.001369, -0.002482, 0.016647, 0.039390, -0.000002, 0.032166, 0.008561, 0.016254, 0.026801, 0.034724, 0.029821, 0.002706, 0.003529, 0.026289, -0.000002, 0.035544, 0.019798, 0.018237, 0.003533, 0.003372, -0.014225, -0.044837, -0.023542, 0.027555, -0.000002, -0.012623, -0.006905, -0.020134, -0.012858, -0.014399, -0.017418, -0.023921, -0.001301, -0.006850, -0.000002, -0.010144, -0.005063, -0.009557, -0.003636, -0.014880, -0.021141, -0.040028, -0.019355, -0.006223, -0.000002, 0.033857, 0.037387, -0.016153, 0.008190, 0.009062, 0.011548, 0.014750, 0.015261, 0.021297, -0.000002, 0.015039, 0.024188, 0.017750, 0.019697, 0.020023, 0.015296, 0.017221, 0.014574, 0.014910, -0.000002, 0.018191, 0.015859, 0.015847, 0.009889, 0.013222, 0.005679, -0.008500, 0.034067, 0.037744, -0.000002, -0.005456, -0.023609, -0.036799, -0.004741, 0.004809, 0.002041, -0.009981, -0.001871, -0.011043, -0.000002, -0.007853, -0.009485, -0.001740, -0.000862, -0.014728, 0.008584, 0.010834, -0.000073, 0.003561, -0.000002, 0.015782, 0.017659, -0.005905, 0.008194, 0.009613, 0.012189, 0.019923, 0.017046, 0.004238, -0.000002, -0.000870, 0.004163, 0.010404, 0.006262, 0.010568, -0.001319, 0.012003, -0.000717, -0.007815, -0.000002, 0.000444, 0.009645, 0.019942, 0.011644, 0.012576, 0.011611, 0.001222, 0.018642, 0.019094, -0.000002, 0.009852, -0.003088, 0.021498, 0.013570, -0.002654, 0.006453, -0.012944, -0.004955, 0.012873, -0.000002, 0.012262, 0.009047, 0.027188, 0.009895, 0.011445, 0.013782, 0.020052, 0.008927, 0.024910, -0.000002, -0.026685, -0.002652, 0.007723, -0.003513, 0.001700, 0.004761, 0.028047, 0.011902, -0.025597, -0.000002, -0.016766, -0.009979, 0.001327, -0.004589, 0.004918, -0.013260, 0.001422, -0.016499, -0.024509, -0.000002, -0.008419, 0.015515, 0.030893, 0.013370, 0.007858, -0.002404, 0.012664, 0.004984, -0.013428, -0.000002, 0.024858, 0.006524, 0.019905, 0.016880, 0.011199, 0.006121, 0.000719, 0.005425, 0.025798, -0.000002, 0.013297, 0.002570, 0.003099, 0.014195, 0.014743, -0.014306, 0.012763, 0.012769, 0.013341, -0.000002, 0.011080, 0.001401, -0.018168, -0.018287, 0.003814, -0.019026, -0.028899, -0.032303, -0.021148, -0.000002, -0.000587, -0.015907, -0.009968, -0.020259, -0.005427, -0.016626, -0.009800, -0.005290, -0.003376, -0.000002, -0.024181, -0.037961, -0.012961, -0.000056, 0.006853, -0.009701, -0.020193, -0.006862, -0.007275, -0.000002, 0.013492, 0.007812, 0.030272, -0.004607, 0.032717, 0.016603, -0.008451, 0.012030, 0.016699, -0.000002, 0.016798, -0.000552, 0.017323, 0.027392, 0.025040, 0.011592, 0.013148, 0.009151, 0.013122, -0.000002, 0.001737, 0.002304, 0.023403, 0.008734, 0.005531, 0.008605, -0.008553, -0.026502, 0.007046, -0.000002, 0.001817, -0.001883, 0.018754, -0.012226, -0.015775, -0.012576, -0.009764, -0.003876, 0.005416, -0.000002, 0.009088, -0.008950, -0.008654, -0.007573, -0.000070, 0.002678, -0.008781, -0.013635, -0.004992, -0.000002, 0.015297, 0.019145, 0.035129, 0.022952, 0.028404, 0.026326, 0.008601, 0.011498, 0.012105, -0.000002, 0.002234, 0.002095, 0.020143, 0.016928, 0.011060, -0.011580, -0.002148, 0.005267, 0.010270, -0.000002, -0.006507, -0.005660, 0.033202, -0.018898, -0.009183, -0.005064, 0.003578, -0.001155, 0.009380, -0.000002, -0.009734, -0.020689, -0.005026, -0.003122, -0.006284, -0.012695, -0.015810, -0.021083, -0.009162, -0.000002, -0.005217, -0.000984, -0.008377, -0.023437, -0.023901, -0.003301, 0.028365, -0.008566, -0.015445, -0.000002, 0.010159, 0.002760, 0.016546, 0.009111, 0.015633, 0.012018, 0.018490, 0.007407, -0.005583, -0.000002, -0.001437, -0.001340, 0.005789, -0.000065, 0.016024, 0.000861, 0.006465, 0.018341, 0.001177, -0.000002, 0.001438, 0.002284, 0.011415, 0.004711, 0.007217, -0.012771, 0.006480, 0.016723, 0.018370, -0.000002, -0.003152, -0.005371, 0.002330, 0.001452, 0.029576, 0.009011, -0.007289, -0.012979, -0.002378, -0.000002, 0.002690, 0.002162, -0.003890, -0.012387, -0.003208, -0.002662, 0.002969, -0.013492, -0.000150, -0.000002, 0.006361, 0.018659, 0.015725, 0.022696, 0.022881, 0.010847, -0.003353, 0.000249, 0.012415, -0.000002, 0.012782, 0.006674, 0.004248, 0.016187, 0.019066, -0.007193, 0.004761, 0.018211, 0.017043, -0.000002, 0.010565, -0.014242, 0.000372, 0.007801, 0.021939, -0.002466, -0.004910, 0.023330, 0.008205, -0.000002, -0.027124, -0.029164, 0.012706, 0.006021, 0.025748, 0.010576, 0.006572, -0.040252, -0.033821, -0.000002, 0.001119, 0.008241, -0.011320, -0.008749, 0.021910, 0.001311, 0.014481, -0.018691, 0.003603, -0.000002, 0.023697, 0.020345, -0.001761, -0.002011, 0.012377, 0.011473, 0.021651, 0.009385, 0.021080, -0.000002, 0.011525, 0.025742, 0.023817, 0.015268, 0.031704, 0.020901, 0.009113, 0.018284, 0.020072, -0.000002, 0.005699, 0.004097, 0.030748, 0.011850, 0.012082, 0.001479, 0.004437, 0.012761, 0.009477, -0.000002, -0.013349, -0.027721, -0.006612, 0.004267, 0.010976, -0.006370, -0.021235, -0.023691, -0.016149, -0.000002, 0.011456, 0.008499, -0.013700, -0.007850, 0.009051, -0.014082, 0.028309, 0.015987, 0.010329, -0.000002, 0.021044, 0.029697, 0.016331, 0.019656, 0.027180, 0.009235, 0.037532, 0.022160, 0.016013, -0.000002, 0.011727, 0.014596, 0.007160, 0.017055, 0.028585, 0.011159, -0.037400, -0.004808, 0.015331, -0.000002, 0.011708, -0.000294, 0.019799, 0.012786, 0.012710, 0.008122, 0.007013, 0.013554, 0.010974, -0.000002, -0.017099, -0.002779, -0.016121, 0.001582, 0.023319, -0.011703, -0.015155, 0.006032, -0.007769, -0.000002, 0.016488, 0.021397, -0.013829, 0.001276, 0.013743, -0.012992, 0.013747, 0.006762, 0.012433, -0.000002, 0.020116, 0.015190, -0.011930, 0.013257, 0.018055, -0.003363, -0.015182, 0.015867, 0.021222, -0.000002, 0.009611, 0.002768, 0.012421, 0.012233, 0.013622, -0.002120, -0.022976, -0.005423, 0.006663, -0.000002, 0.002715, 0.010102, 0.008293, -0.011245, -0.012406, -0.004369, 0.017385, 0.003885, 0.004990, -0.000002, -0.022419, 0.003686, 0.026425, 0.017170, 0.023503, 0.007272, 0.029652, 0.004155, -0.018903, -0.000002, 0.009475, 0.014579, 0.010358, -0.012160, -0.010707, -0.012157, 0.007992, 0.008159, 0.003835, -0.000002, 0.002500, -0.005921, -0.016756, -0.017102, -0.000199, 0.007307, -0.001580, 0.001475, 0.003305, -0.000002, 0.005429, -0.008347, -0.002317, 0.011602, 0.004449, -0.001466, 0.000964, -0.013146, -0.000193, -0.000002, 0.010545, 0.024029, 0.018124, -0.015696, -0.011084, 0.002045, 0.011813, -0.003795, 0.007382, -0.000002, -0.008295, -0.003960, 0.012788, 0.013083, 0.031179, 0.012381, 0.013111, -0.002011, -0.009502, -0.000002, 0.016814, 0.013840, 0.005285, 0.018732, -0.009275, -0.011337, 0.012527, 0.006995, 0.006308, -0.000002, 0.012797, -0.002715, -0.000171, -0.012480, 0.011190, 0.022735, -0.017679, -0.016087, -0.001893, -0.000002, -0.006527, -0.009133, 0.001677, 0.016593, 0.016281, -0.000380, -0.020401, -0.018481, -0.003325, -0.000002, 0.013299, 0.014197, 0.010232, -0.020877, 0.007619, -0.006012, -0.008990, 0.008927, 0.008508, -0.000002, -0.000246, 0.003534, 0.001286, -0.024019, -0.012154, -0.017936, -0.003278, 0.010682, -0.002322, -0.000002, 0.010988, 0.016441, -0.014797, 0.004815, 0.010456, -0.008498, 0.009969, 0.012537, 0.006288, -0.000002, -0.003310, -0.015694, -0.007161, -0.021571, 0.012018, 0.012111, -0.010280, -0.003528, -0.015348, -0.000002, -0.022209, -0.023558, -0.022622, -0.020072, -0.007246, -0.011238, -0.009082, 0.001407, 0.001019, -0.000002, 0.010318, 0.009527, 0.003412, -0.007224, 0.019835, 0.000494, 0.015453, 0.027211, 0.014329, -0.000002, 0.001938, 0.001222, 0.012153, -0.004397, 0.005554, -0.015753, 0.004445, 0.001865, 0.001718, -0.000002, 0.015352, 0.018522, 0.005401, -0.017038, 0.015175, 0.010894, 0.018279, 0.013648, 0.006480, -0.000002, -0.015663, -0.011185, -0.011652, 0.009996, 0.019400, 0.003765, -0.014950, -0.018304, -0.022410, -0.000002, -0.019131, -0.021388, -0.007279, -0.010391, 0.000883, 0.004354, 0.008301, 0.026194, 0.009400, -0.000002, 0.014720, 0.008970, 0.027515, 0.035717, 0.058001, 0.048772, 0.040255, 0.026232, 0.023072, -0.000002, 0.011042, -0.004222, 0.013776, 0.004344, 0.015225, 0.013307, 0.026605, 0.008170, 0.010741, -0.000002, 0.016718, 0.037845, 0.048066, 0.045489, 0.043933, 0.034547, 0.030073, 0.024409, 0.011491, -0.000002, 0.017937, 0.023404, 0.010145, -0.001871, 0.004505, -0.014309, -0.005407, -0.002321, -0.015699, -0.000002, -0.025823, -0.019538, -0.009856, -0.031145, -0.015404, -0.026076, -0.023299, -0.007081, 0.010269, -0.000002, 0.017646, 0.015258, -0.016254, 0.012214, 0.028693, 0.022588, -0.029355, 0.012968, 0.009228, -0.000002, -0.018391, -0.024838, -0.027448, 0.009604, 0.020359, -0.000039, -0.031380, -0.009957, -0.013959, -0.000002, 0.014514, 0.006515, -0.014143, 0.018812, 0.037307, 0.021645, -0.015638, 0.006667, 0.011329, -0.000002, 0.005888, -0.007948, -0.021846, -0.036039, -0.025158, -0.021430, 0.011698, 0.003241, -0.003561, -0.000002},
	{-0.003331, -0.015127, -0.010984, 0.002496, -0.020250, -0.029359, -0.027834, -0.023235, 0.011551, 0.000001, 0.034786, -0.018141, -0.050856, -0.008422, -0.007722, 0.001091, 0.000809, 0.025287, 0.049683, 0.000001, 0.032914, 0.013091, 0.021796, 0.036408, 0.047572, 0.039439, 0.005464, 0.007151, 0.028759, 0.000001, 0.043776, 0.026427, 0.024614, 0.006102, 0.003601, -0.019578, -0.056558, -0.031619, 0.027167, 0.000001, -0.005656, -0.012284, -0.024998, -0.013770, -0.019050, -0.017195, -0.027062, -0.003819, -0.011436, 0.000001, -0.014514, -0.004379, -0.019326, -0.003441, -0.015692, -0.020692, -0.043668, -0.019907, -0.005310, 0.000001, 0.047359, 0.044611, -0.018314, 0.011197, 0.009283, 0.014528, 0.025747, 0.024735, 0.026692, 0.000001, 0.019176, 0.031589, 0.024155, 0.025356, 0.027642, 0.021148, 0.020694, 0.021439, 0.017596, 0.000001, 0.023481, 0.024162, 0.025460, 0.011635, 0.015762, 0.005455, -0.009537, 0.039058, 0.049735, 0.000001, -0.003936, -0.027071, -0.043207, -0.000986, 0.004444, -0.001383, -0.016899, -0.001970, -0.012468, 0.000001, -0.009888, -0.013096, 0.000003, -0.003629, -0.014531, 0.011925, 0.012649, 0.004222, 0.000768, 0.000001, 0.021765, 0.019137, -0.001056, 0.014779, 0.012455, 0.017297, 0.025992, 0.021621, 0.007937, 0.000001, -0.001142, 0.007752, 0.015937, 0.010266, 0.019121, -0.000994, 0.017715, -0.001699, -0.008332, 0.000001, 0.005459, 0.013705, 0.028736, 0.017057, 0.014065, 0.012775, 0.003189, 0.021783, 0.029358, 0.000001, 0.010068, -0.001981, 0.025614, 0.017157, 0.002279, 0.007262, -0.014892, -0.006721, 0.009696, 0.000001, 0.012105, 0.006376, 0.023705, 0.016650, 0.012251, 0.018365, 0.025245, 0.012581, 0.031393, 0.000001, -0.031272, -0.003492, 0.009993, -0.000780, -0.000930, 0.008192, 0.037790, 0.016585, -0.033421, 0.000001, -0.021287, -0.009378, -0.003942, -0.007495, 0.005469, -0.011798, 0.001520, -0.018215, -0.032149, 0.000001, -0.015731, 0.022386, 0.036910, 0.017206, 0.006211, 0.001216, 0.011347, -0.001212, -0.020562, 0.000001, 0.032015, 0.009747, 0.030095, 0.020147, 0.017328, 0.007464, -0.002772, 0.005338, 0.032111, 0.000001, 0.020610, -0.000365, -0.002004, 0.018538, 0.012105, -0.013683, 0.008993, 0.016988, 0.017958, 0.000001, 0.010887, -0.003736, -0.013846, -0.020593, -0.001954, -0.020187, -0.037158, -0.037024, -0.025276, 0.000001, -0.001729, -0.020358, -0.012819, -0.022347, -0.007014, -0.013980, -0.014322, -0.009376, -0.002913, 0.000001, -0.032299, -0.047484, -0.019037, 0.001411, 0.001841, -0.010030, -0.019136, -0.005790, -0.010329, 0.000001, 0.018758, 0.007684, 0.034214, -0.005893, 0.032472, 0.016525, -0.011206, 0.014425, 0.019120, 0.000001, 0.020710, -0.001223, 0.019769, 0.035845, 0.028600, 0.010318, 0.011933, 0.012499, 0.015675, 0.000001, -0.000403, -0.000116, 0.031142, 0.002958, 0.001636, 0.008024, -0.006193, -0.031886, 0.007962, 0.000001, 0.001963, -0.000122, 0.021715, -0.014077, -0.021908, -0.014659, -0.009409, -0.003582, 0.007794, 0.000001, 0.012524, -0.010895, -0.003361, -0.009375, -0.004797, -0.002877, -0.009369, -0.018348, -0.005825, 0.000001, 0.018726, 0.024073, 0.038922, 0.027072, 0.035505, 0.031193, 0.003226, 0.015230, 0.016277, 0.000001, 0.000435, -0.001321, 0.029534, 0.016043, 0.012822, -0.010152, -0.003332, 0.007854, 0.013985, 0.000001, -0.005083, -0.003160, 0.034096, -0.020923, -0.013836, -0.004950, -0.002591, 0.001099, 0.012915, 0.000001, -0.008790, -0.021813, -0.004275, -0.007602, -0.011921, -0.013368, -0.017275, -0.020248, -0.006893, 0.000001, -0.004601, -0.000695, -0.012026, -0.033678, -0.026758, -0.009345, 0.026101, -0.010124, -0.012957, 0.000001, 0.015123, 0.001506, 0.019971, 0.005388, 0.018487, 0.010978, 0.021054, 0.009273, -0.005777, 0.000001, -0.004022, 0.003262, 0.006986, 0.002238, 0.015871, -0.006078, 0.002558, 0.022473, 0.004078, 0.000001, 0.001192, -0.001804, 0.013975, 0.003687, 0.001476, -0.012742, 0.009001, 0.012899, 0.024254, 0.000001, 0.000479, -0.006119, 0.000803, -0.002135, 0.028944, 0.005490, -0.009337, -0.015218, 0.000505, 0.000001, 0.004998, -0.002497, 0.002694, -0.008467, -0.003141, -0.003642, 0.006182, -0.018923, 0.000108, 0.000001, 0.010856, 0.017513, 0.016321, 0.023742, 0.021696, 0.012928, -0.004309, 0.005283, 0.015009, 0.000001, 0.017464, 0.007034, -0.000506, 0.019219, 0.024452, -0.007389, 0.005426, 0.019960, 0.020896, 0.000001, 0.011993, -0.021521, -0.000093, 0.008909, 0.028342, -0.003971, -0.007769, 0.023889, 0.010995, 0.000001, -0.029826, -0.035174, 0.016751, 0.008530, 0.026931, 0.009961, 0.006089, -0.045076, -0.039492, 0.000001, 0.001496, 0.004871, -0.013952, -0.011193, 0.029589, 0.001854, 0.010112, -0.020707, 0.004147, 0.000001, 0.032244, 0.024582, -0.002044, 0.000644, 0.016996, 0.011443, 0.020195, 0.012382, 0.027873, 0.000001, 0.016067, 0.029257, 0.022957, 0.015913, 0.039828, 0.021176, 0.008117, 0.020077, 0.026610, 0.000001, 0.007481, 0.006344, 0.029067, 0.013905, 0.019655, -0.000308, 0.000580, 0.011230, 0.009289, 0.000001, -0.016144, -0.038938, -0.009584, 0.004151, 0.012134, -0.008036, -0.024178, -0.034117, -0.017664, 0.000001, 0.015751, 0.007385, -0.017593, -0.006996, 0.013235, -0.010786, 0.029760, 0.020063, 0.011033, 0.000001, 0.028034, 0.032635, 0.012658, 0.018459, 0.030910, 0.016513, 0.041438, 0.027549, 0.018751, 0.000001, 0.015848, 0.020632, 0.004618, 0.007438, 0.025324, 0.006615, -0.043857, -0.005978, 0.015689, 0.000001, 0.016823, 0.005145, 0.026847, 0.007829, 0.011852, 0.007870, 0.002770, 0.015143, 0.014184, 0.000001, -0.018958, -0.006854, -0.023183, -0.001731, 0.018742, -0.019274, -0.025184, 0.003063, -0.009456, 0.000001, 0.024347, 0.023143, -0.018900, 0.002432, 0.015127, -0.019674, 0.020709, 0.014733, 0.016423, 0.000001, 0.021852, 0.015045, -0.018337, 0.013642, 0.020434, -0.008518, -0.019948, 0.022844, 0.024579, 0.000001, 0.010347, 0.001185, 0.010314, 0.011916, 0.017131, -0.000295, -0.019845, -0.009871, 0.011669, 0.000001, 0.006983, 0.015026, 0.013045, -0.012022, -0.010332, -0.005566, 0.023571, 0.004997, 0.006394, 0.000001, -0.023840, 0.007614, 0.023518, 0.011855, 0.015662, 0.004123, 0.025759, 0.003070, -0.018501, 0.000001, 0.012776, 0.015458, 0.021134, -0.011596, -0.008953, -0.014164, 0.008389, 0.012216, 0.007149, 0.000001, 0.005999, -0.008333, -0.012569, -0.016155, 0.001267, 0.004931, -0.004863, -0.003308, 0.003167, 0.000001, 0.007877, -0.009106, -0.003859, 0.010507, 0.001611, 0.002603, -0.002784, -0.016691, -0.000695, 0.000001, 0.013875, 0.023725, 0.016409, -0.018853, -0.016871, -0.003610, 0.014333, -0.001075, 0.006632, 0.000001, -0.009370, -0.005450, 0.009478, 0.008501, 0.028637, 0.009516, 0.015813, -0.004250, -0.013666, 0.000001, 0.019124, 0.014331, 0.009665, 0.012717, -0.013929, -0.011453, 0.013765, 0.007562, 0.006752, 0.000001, 0.013514, -0.005185, -0.003128, -0.011129, 0.012287, 0.022092, -0.018833, -0.015444, -0.003785, 0.000001, -0.006577, -0.006569, -0.006749, 0.019237, 0.021795, -0.000746, -0.025950, -0.024357, -0.005956, 0.000001, 0.017295, 0.017558, 0.016436, -0.022575, 0.008148, -0.010390, -0.004683, 0.013092, 0.013693, 0.000001, 0.000745, 0.008313, 0.003673, -0.029024, -0.005109, -0.025414, 0.003288, 0.014385, -0.003399, 0.000001, 0.016379, 0.017231, -0.017661, 0.001007, 0.011744, -0.012071, 0.004808, 0.015252, 0.008365, 0.000001, -0.007070, -0.019251, -0.007974, -0.026697, 0.014253, 0.013565, -0.020089, -0.004894, -0.017230, 0.000001, -0.023111, -0.028583, -0.030863, -0.020608, -0.010425, -0.010641, -0.011295, -0.002746, 0.002297, 0.000001, 0.015095, 0.014625, 0.006020, -0.003764, 0.023872, -0.006254, 0.019698, 0.030363, 0.019744, 0.000001, 0.003324, 0.008329, 0.014644, -0.001112, -0.000243, -0.016593, 0.007408, 0.006287, 0.002603, 0.000001, 0.020257, 0.023176, 0.007384, -0.018855, 0.017852, 0.008468, 0.018962, 0.016641, 0.009866, 0.000001, -0.018219, -0.013609, -0.008048, 0.009625, 0.022975, 0.004923, -0.024517, -0.024505, -0.023645, 0.000001, -0.022971, -0.024741, 0.000764, -0.007171, 0.010245, 0.004357, 0.012784, 0.026846, 0.016633, 0.000001, 0.017013, 0.019031, 0.030016, 0.043968, 0.068340, 0.055925, 0.043813, 0.036729, 0.027698, 0.000001, 0.006936, -0.003121, 0.022314, 0.007712, 0.016834, 0.015593, 0.034031, 0.006746, 0.005005, 0.000001, 0.023097, 0.050157, 0.055671, 0.048712, 0.052044, 0.039031, 0.032475, 0.031616, 0.012782, 0.000001, 0.018762, 0.019208, 0.010931, -0.002750, 0.010963, -0.009733, -0.005950, -0.005527, -0.021880, 0.000001, -0.021436, -0.017647, -0.012416, -0.037727, -0.018521, -0.026212, -0.028750, -0.012907, 0.008431, 0.000001, 0.016547, 0.014589, -0.017600, 0.011190, 0.033896, 0.018942, -0.035894, 0.012211, 0.013598, 0.000001, -0.017057, -0.022220, -0.032395, 0.012924, 0.018055, 0.002418, -0.038145, -0.008655, -0.017134, 0.000001, 0.015302, 0.004758, -0.014692, 0.017045, 0.042327, 0.022917, -0.018682, 0.005966, 0.009798, 0.000001, 0.003089, -0.010173, -0.028460, -0.035844, -0.028781, -0.029007, 0.013247, 0.001938, 0.003278, 0.000001},
	{-0.011309, -0.019808, -0.014434, 0.003515, -0.023623, -0.034453, -0.021095, -0.022713, 0.009153, 0.000005, 0.029014, -0.027729, -0.057496, -0.005540, -0.008109, 0.005498, 0.009578, 0.030604, 0.057448, 0.000005, 0.035076, 0.019595, 0.027758, 0.049544, 0.059494, 0.049223, 0.009487, 0.009907, 0.028855, 0.000005, 0.049251, 0.033801, 0.034201, 0.009843, 0.005881, -0.022266, -0.067193, -0.036272, 0.025108, 0.000005, -0.004033, -0.013215, -0.026410, -0.021367, -0.019579, -0.017926, -0.027766, -0.006949, -0.015760, 0.000005, -0.017546, -0.000931, -0.021803, -0.001591, -0.013173, -0.027392, -0.044444, -0.023145, -0.004623, 0.000005, 0.061247, 0.050999, -0.016950, 0.010817, 0.010379, 0.019819, 0.038602, 0.038352, 0.031253, 0.000005, 0.025739, 0.037456, 0.033682, 0.033555, 0.034113, 0.026035, 0.024668, 0.026932, 0.023795, 0.000005, 0.030730, 0.037221, 0.035926, 0.013294, 0.016444, 0.004202, -0.009085, 0.043739, 0.058726, 0.000005, -0.005837, -0.029638, -0.047958, -0.002996, 0.001670, -0.004112, -0.023872, 0.000758, -0.017188, 0.000005, -0.007930, -0.014095, 0.000691, -0.012978, -0.012513, 0.015518, 0.012331, 0.010104, -0.003321, 0.000005, 0.029898, 0.022194, 0.003330, 0.023770, 0.017941, 0.020518, 0.034734, 0.022711, 0.014406, 0.000005, -0.005069, 0.012628, 0.021653, 0.015377, 0.020121, 0.001402, 0.022631, -0.002222, -0.011043, 0.000005, 0.009870, 0.015453, 0.038151, 0.023492, 0.018643, 0.012874, 0.003100, 0.022019, 0.038675, 0.000005, 0.010595, -0.003226, 0.026789, 0.020671, 0.006276, 0.008305, -0.013916, -0.008434, 0.011355, 0.000005, 0.015234, 0.002177, 0.020982, 0.019591, 0.014214, 0.024313, 0.033735, 0.019071, 0.036674, 0.000005, -0.036551, -0.002914, 0.013829, -0.001844, -0.002722, 0.015072, 0.053120, 0.023448, -0.042714, 0.000005, -0.024374, -0.006284, -0.003160, -0.005864, 0.010556, -0.008743, 0.005404, -0.020969, -0.039020, 0.000005, -0.024956, 0.026179, 0.045409, 0.023304, 0.007080, 0.004710, 0.011457, -0.008032, -0.027760, 0.000005, 0.041240, 0.015060, 0.042519, 0.020463, 0.024394, 0.010214, -0.002840, 0.001865, 0.038411, 0.000005, 0.022185, -0.003838, -0.001790, 0.022450, 0.010888, -0.017319, 0.006512, 0.021736, 0.024027, 0.000005, 0.007724, -0.007901, -0.008361, -0.023133, 0.000651, -0.023584, -0.042642, -0.045035, -0.027264, 0.000005, -0.007793, -0.021051, -0.020920, -0.026635, -0.007778, -0.018246, -0.020339, -0.012843, -0.005411, 0.000005, -0.040690, -0.056686, -0.021184, -0.000837, -0.000681, -0.018523, -0.010681, -0.006764, -0.014966, 0.000005, 0.024187, 0.008021, 0.031126, -0.009587, 0.030773, 0.018421, -0.008755, 0.015915, 0.018379, 0.000005, 0.022329, -0.001576, 0.022725, 0.039629, 0.030158, 0.006804, 0.013822, 0.013667, 0.020966, 0.000005, 0.000417, -0.001814, 0.037185, 0.001708, -0.003358, 0.005811, -0.002471, -0.030962, 0.007035, 0.000005, 0.002213, 0.003442, 0.021231, -0.014531, -0.021116, -0.014173, -0.013780, -0.004080, 0.009887, 0.000005, 0.013358, -0.012353, 0.000695, -0.014318, -0.009910, -0.006261, -0.010579, -0.016448, -0.006535, 0.000005, 0.023867, 0.026143, 0.044990, 0.027261, 0.039432, 0.031613, 0.003132, 0.016976, 0.019013, 0.000005, 0.001792, -0.003544, 0.036186, 0.016740, 0.009656, -0.005575, -0.009114, 0.011482, 0.016470, 0.000005, -0.000119, -0.002714, 0.032323, -0.024871, -0.019468, -0.004426, -0.006568, -0.001331, 0.018381, 0.000005, -0.008571, -0.027283, -0.003285, -0.013315, -0.006079, -0.014513, -0.015799, -0.020460, -0.000611, 0.000005, -0.001781, -0.006860, -0.014328, -0.041276, -0.033584, -0.011707, 0.021670, -0.013854, -0.008335, 0.000005, 0.018428, 0.000916, 0.021766, 0.006079, 0.016695, 0.011476, 0.020223, 0.011974, -0.005110, 0.000005, -0.005613, 0.004573, 0.005357, 0.003173, 0.016279, -0.009774, -0.000728, 0.025131, 0.007683, 0.000005, 0.001569, -0.003905, 0.015470, 0.002455, 0.000915, -0.008824, 0.010633, 0.010604, 0.027922, 0.000005, 0.001988, -0.009804, -0.001630, 0.000138, 0.032589, 0.004994, -0.008538, -0.017450, 0.003253, 0.000005, 0.006801, -0.001821, 0.004240, -0.003027, 0.002785, -0.007431, 0.007586, -0.017706, 0.003218, 0.000005, 0.015232, 0.015713, 0.018611, 0.023616, 0.026463, 0.011295, -0.006113, 0.005030, 0.017198, 0.000005, 0.020099, 0.005738, 0.000912, 0.018665, 0.027653, -0.001119, 0.006993, 0.023542, 0.024855, 0.000005, 0.012717, -0.030720, 0.003951, 0.013020, 0.032330, -0.008590, -0.014756, 0.022964, 0.013827, 0.000005, -0.035325, -0.038451, 0.021287, 0.008565, 0.023352, 0.015033, 0.005295, -0.050031, -0.041827, 0.000005, 0.005520, -0.000850, -0.021680, -0.014185, 0.033790, 0.002989, 0.011886, -0.025801, 0.000372, 0.000005, 0.039717, 0.025920, -0.006355, 0.001501, 0.022872, 0.012690, 0.022393, 0.012890, 0.031862, 0.000005, 0.020819, 0.030124, 0.024098, 0.017613, 0.048053, 0.021278, 0.010789, 0.020477, 0.031344, 0.000005, 0.007539, 0.004621, 0.027489, 0.015993, 0.026196, -0.003414, -0.003851, 0.015634, 0.009229, 0.000005, -0.017855, -0.046256, -0.008466, 0.004574, 0.014472, -0.006538, -0.026035, -0.040101, -0.019207, 0.000005, 0.018655, 0.009412, -0.021409, -0.011761, 0.019258, -0.010781, 0.027018, 0.020817, 0.012038, 0.000005, 0.033737, 0.033658, 0.012518, 0.017448, 0.038282, 0.022539, 0.039506, 0.027017, 0.021278, 0.000005, 0.023208, 0.019957, 0.000057, 0.002365, 0.027720, 0.000716, -0.048029, -0.009134, 0.015010, 0.000005, 0.021825, 0.008009, 0.029358, 0.000387, 0.009251, 0.001304, 0.005596, 0.014782, 0.018376, 0.000005, -0.022516, -0.013733, -0.027165, -0.007706, 0.013991, -0.026593, -0.029246, 0.001176, -0.012152, 0.000005, 0.031509, 0.021841, -0.024547, -0.001490, 0.018883, -0.029923, 0.020234, 0.019866, 0.021896, 0.000005, 0.023738, 0.013713, -0.019972, 0.011483, 0.026538, -0.009199, -0.032441, 0.021281, 0.030071, 0.000005, 0.012376, -0.001340, 0.003667, 0.012131, 0.018860, -0.003049, -0.018030, -0.010489, 0.012258, 0.000005, 0.012135, 0.017458, 0.020108, -0.010019, -0.004760, -0.014329, 0.026411, 0.005369, 0.007447, 0.000005, -0.023395, 0.009526, 0.024773, 0.001644, 0.007124, -0.003207, 0.021512, 0.001654, -0.019914, 0.000005, 0.015469, 0.015814, 0.028615, -0.017279, -0.008274, -0.016900, 0.012573, 0.012078, 0.012350, 0.000005, 0.006891, -0.009836, -0.011864, -0.015326, 0.002747, 0.004433, -0.010022, -0.002204, 0.004009, 0.000005, 0.007806, -0.011556, -0.004916, 0.010359, -0.000024, -0.001890, -0.004532, -0.018880, -0.000172, 0.000005, 0.017186, 0.026318, 0.016152, -0.022512, -0.013752, -0.011375, 0.014170, -0.000163, 0.005828, 0.000005, -0.013740, -0.014325, 0.006125, 0.004133, 0.030712, 0.003099, 0.017936, -0.009247, -0.017614, 0.000005, 0.020066, 0.013615, 0.007490, 0.007178, -0.010406, -0.011914, 0.010398, 0.009221, 0.006722, 0.000005, 0.012495, -0.007084, -0.012807, -0.011052, 0.011922, 0.017351, -0.018684, -0.015247, -0.005980, 0.000005, -0.006958, -0.010338, -0.010991, 0.017432, 0.021887, -0.000863, -0.029019, -0.029961, -0.007494, 0.000005, 0.021722, 0.019871, 0.013953, -0.024546, 0.007245, -0.014056, 0.004369, 0.019090, 0.018197, 0.000005, 0.002614, 0.014957, 0.001142, -0.034513, -0.002402, -0.034320, 0.004577, 0.020976, -0.004045, 0.000005, 0.020634, 0.017966, -0.017577, 0.002214, 0.013594, -0.016219, -0.000852, 0.016072, 0.011260, 0.000005, -0.008930, -0.021586, -0.009511, -0.026798, 0.012192, 0.011803, -0.021379, -0.011947, -0.017255, 0.000005, -0.023197, -0.032829, -0.036642, -0.020643, -0.010436, -0.013630, -0.011357, -0.011521, 0.001970, 0.000005, 0.017202, 0.019487, 0.010736, -0.000079, 0.030226, -0.008346, 0.019546, 0.031652, 0.026951, 0.000005, 0.003953, 0.016110, 0.014256, -0.002404, 0.000085, -0.018454, 0.005875, 0.008414, 0.002726, 0.000005, 0.030187, 0.027321, 0.007095, -0.019198, 0.024628, 0.008588, 0.018131, 0.019399, 0.012798, 0.000005, -0.022269, -0.021068, -0.002275, 0.008963, 0.023435, 0.006437, -0.025026, -0.029764, -0.028852, 0.000005, -0.027586, -0.026475, 0.006772, -0.006027, 0.016776, 0.002219, 0.017332, 0.029430, 0.018403, 0.000005, 0.017473, 0.026025, 0.034636, 0.055309, 0.078017, 0.064903, 0.051154, 0.046748, 0.033708, 0.000005, 0.006210, 0.006514, 0.030785, 0.012245, 0.018055, 0.018372, 0.038776, 0.008373, -0.000281, 0.000005, 0.031663, 0.058993, 0.063631, 0.050382, 0.058963, 0.047918, 0.038315, 0.035228, 0.016172, 0.000005, 0.015682, 0.021970, 0.009747, -0.001237, 0.014733, -0.002032, -0.004994, -0.006902, -0.029900, 0.000005, -0.021981, -0.015817, -0.017178, -0.045200, -0.020319, -0.038276, -0.032809, -0.018734, 0.006567, 0.000005, 0.014574, 0.011704, -0.011435, 0.005537, 0.037142, 0.016571, -0.041049, 0.007716, 0.016280, 0.000005, -0.021365, -0.022257, -0.031202, 0.007127, 0.016214, -0.000945, -0.038270, -0.011992, -0.026373, 0.000005, 0.016342, 0.000081, -0.018918, 0.015642, 0.046554, 0.018232, -0.016956, 0.002953, 0.012275, 0.000005, 0.002701, -0.017409, -0.030650, -0.042175, -0.031273, -0.031805, 0.012981, 0.003606, 0.000600, 0.000005},
	{-0.019218, -0.021656, -0.019990, 0.005767, -0.024637, -0.035728, -0.022328, -0.020433, 0.005879, 0.000006, 0.023641, -0.038488, -0.063354, -0.000230, -0.009180, 0.008974, 0.020542, 0.032297, 0.056527, 0.000006, 0.032127, 0.023711, 0.037343, 0.058138, 0.069659, 0.057212, 0.017310, 0.012591, 0.027956, 0.000006, 0.048063, 0.037507, 0.044410, 0.013600, 0.009243, -0.025360, -0.071441, -0.041188, 0.025884, 0.000006, -0.005895, -0.013696, -0.027185, -0.020000, -0.021525, -0.014387, -0.034324, -0.010595, -0.016887, 0.000006, -0.019476, 0.002208, -0.020857, 0.007797, -0.005634, -0.026781, -0.050416, -0.026822, -0.003465, 0.000006, 0.070268, 0.058539, -0.013932, 0.010160, 0.013866, 0.024160, 0.049400, 0.051455, 0.037432, 0.000006, 0.029371, 0.045830, 0.042700, 0.044580, 0.045520, 0.030275, 0.031606, 0.032948, 0.024202, 0.000006, 0.039716, 0.047500, 0.045436, 0.014626, 0.016374, 0.007855, -0.010804, 0.050684, 0.065386, 0.000006, -0.005704, -0.032545, -0.055397, -0.004903, 0.005356, 0.003013, -0.027365, 0.008065, -0.021962, 0.000006, -0.002954, -0.011106, 0.000004, -0.018835, -0.010135, 0.021076, 0.015324, 0.014275, -0.002284, 0.000006, 0.033823, 0.021938, 0.010684, 0.030634, 0.019400, 0.022552, 0.042686, 0.022635, 0.018762, 0.000006, -0.005712, 0.017773, 0.030317, 0.021398, 0.022570, 0.003521, 0.027080, -0.001838, -0.011696, 0.000006, 0.012341, 0.016726, 0.047047, 0.027466, 0.020843, 0.015839, 0.007848, 0.018117, 0.042527, 0.000006, 0.012116, -0.001236, 0.030916, 0.026138, 0.006785, 0.011347, -0.012731, -0.007953, 0.013984, 0.000006, 0.016147, -0.001130, 0.018804, 0.020008, 0.010531, 0.027994, 0.039837, 0.029051, 0.037672, 0.000006, -0.036392, -0.005206, 0.013467, -0.004452, -0.003586, 0.021404, 0.066345, 0.028965, -0.049751, 0.000006, -0.026467, -0.005994, -0.005949, -0.006696, 0.012628, -0.007891, 0.009950, -0.025289, -0.045121, 0.000006, -0.032710, 0.028439, 0.054441, 0.028731, 0.005233, 0.007288, 0.006204, -0.010211, -0.032541, 0.000006, 0.046127, 0.022129, 0.052641, 0.025572, 0.025169, 0.011060, -0.005736, 0.004997, 0.037306, 0.000006, 0.025834, -0.008083, -0.003533, 0.020097, 0.010752, -0.024221, 0.006583, 0.027513, 0.031263, 0.000006, 0.009778, -0.015633, -0.001466, -0.024789, 0.001214, -0.026892, -0.048039, -0.053544, -0.029700, 0.000006, -0.014571, -0.021758, -0.024610, -0.025916, -0.013953, -0.019434, -0.024589, -0.016806, -0.006475, 0.000006, -0.047807, -0.063371, -0.024831, -0.001739, -0.002658, -0.020678, -0.007534, -0.008223, -0.021055, 0.000006, 0.030536, 0.009180, 0.025933, -0.011731, 0.036007, 0.018468, -0.011872, 0.014688, 0.016700, 0.000006, 0.025151, -0.003469, 0.025801, 0.040291, 0.037508, 0.005421, 0.026912, 0.017273, 0.027304, 0.000006, 0.002308, -0.003333, 0.043414, -0.001810, -0.004827, 0.006203, 0.001176, -0.026320, 0.005559, 0.000006, 0.008619, 0.006350, 0.024847, -0.015597, -0.025574, -0.017097, -0.013673, -0.005071, 0.013399, 0.000006, 0.014086, -0.009748, 0.009493, -0.020687, -0.011719, -0.009799, -0.008119, -0.016446, -0.004598, 0.000006, 0.031566, 0.028647, 0.056751, 0.028370, 0.047161, 0.033045, 0.007708, 0.015834, 0.022239, 0.000006, 0.003396, -0.005531, 0.041431, 0.016450, 0.004472, -0.004788, -0.008187, 0.015851, 0.015727, 0.000006, 0.007999, -0.000235, 0.027825, -0.025489, -0.026023, -0.004099, -0.007749, -0.000798, 0.023016, 0.000006, -0.008994, -0.033090, -0.002537, -0.016501, -0.005283, -0.015285, -0.015316, -0.022006, 0.003362, 0.000006, 0.001308, -0.010210, -0.017615, -0.045683, -0.036341, -0.012594, 0.017446, -0.013382, 0.000513, 0.000006, 0.019393, 0.004563, 0.024755, -0.001234, 0.020467, 0.011841, 0.024561, 0.013094, -0.001845, 0.000006, -0.007529, 0.003304, 0.005645, 0.003718, 0.020484, -0.015551, -0.000704, 0.019603, 0.011706, 0.000006, 0.000815, -0.004339, 0.015621, -0.000869, 0.001330, -0.010425, 0.009312, 0.001042, 0.030549, 0.000006, 0.000275, -0.011041, -0.006444, -0.001101, 0.035109, 0.003279, -0.010484, -0.013632, -0.000695, 0.000006, 0.006947, -0.006927, 0.005167, -0.002611, 0.005510, -0.010475, 0.008566, -0.014889, 0.006273, 0.000006, 0.018180, 0.010896, 0.021777, 0.018128, 0.032038, 0.005191, -0.003890, 0.005550, 0.019230, 0.000006, 0.024180, 0.007774, -0.003538, 0.014726, 0.029277, 0.000103, 0.003372, 0.025050, 0.028276, 0.000006, 0.011600, -0.038203, 0.004218, 0.015176, 0.035731, -0.013224, -0.014686, 0.027319, 0.020188, 0.000006, -0.039574, -0.043286, 0.026245, 0.011484, 0.018977, 0.021177, 0.001884, -0.057896, -0.045412, 0.000006, 0.009518, -0.003781, -0.029526, -0.020940, 0.033207, 0.004351, 0.010115, -0.034134, -0.005686, 0.000006, 0.047540, 0.029349, -0.003518, 0.001482, 0.028751, 0.014345, 0.022257, 0.013651, 0.033099, 0.000006, 0.027178, 0.035798, 0.022001, 0.014977, 0.056638, 0.019218, 0.004607, 0.018250, 0.033266, 0.000006, 0.007109, 0.001261, 0.028426, 0.018475, 0.028931, -0.000768, -0.002865, 0.017638, 0.010010, 0.000006, -0.021403, -0.052439, -0.006868, 0.004634, 0.016870, 0.000043, -0.026182, -0.049728, -0.020796, 0.000006, 0.018639, 0.009493, -0.019894, -0.010528, 0.022537, -0.010775, 0.020287, 0.018641, 0.010931, 0.000006, 0.038594, 0.033710, 0.008381, 0.015639, 0.044375, 0.024070, 0.034750, 0.029585, 0.027479, 0.000006, 0.027040, 0.014841, -0.000968, -0.002995, 0.030644, -0.006356, -0.049276, -0.019234, 0.011944, 0.000006, 0.027317, 0.009715, 0.026599, -0.003368, 0.004864, 0.002206, 0.008707, 0.012519, 0.021850, 0.000006, -0.025090, -0.015987, -0.032984, -0.013756, 0.008915, -0.030470, -0.033055, 0.001366, -0.014633, 0.000006, 0.038830, 0.013330, -0.021947, -0.003331, 0.019869, -0.032704, 0.015651, 0.020100, 0.027988, 0.000006, 0.021862, 0.006116, -0.017153, 0.010649, 0.031644, -0.006898, -0.034883, 0.016422, 0.036535, 0.000006, 0.013164, -0.007957, -0.001663, 0.014478, 0.019019, -0.004243, -0.013342, -0.011552, 0.014308, 0.000006, 0.015017, 0.020693, 0.024266, -0.006150, -0.002132, -0.017881, 0.028929, 0.009375, 0.006320, 0.000006, -0.024591, 0.013471, 0.025966, -0.009898, 0.001612, -0.014207, 0.028135, 0.000559, -0.022536, 0.000006, 0.018417, 0.016170, 0.030991, -0.021902, -0.008353, -0.022242, 0.006289, 0.013468, 0.014766, 0.000006, 0.006777, -0.011210, -0.008352, -0.015979, 0.001904, 0.008013, -0.014719, -0.006486, 0.007142, 0.000006, 0.008052, -0.011538, -0.008618, 0.007498, -0.001745, 0.001931, -0.009970, -0.022991, 0.000115, 0.000006, 0.019558, 0.027808, 0.014481, -0.022463, -0.010752, -0.011751, 0.013517, -0.002358, 0.006792, 0.000006, -0.017835, -0.019042, 0.004701, 0.000983, 0.030998, -0.000609, 0.014945, -0.008903, -0.019097, 0.000006, 0.022083, 0.014336, 0.006919, 0.007782, -0.004751, -0.012449, 0.010872, 0.009646, 0.007289, 0.000006, 0.013510, -0.012270, -0.015116, -0.010812, 0.010894, 0.013125, -0.020913, -0.015652, -0.008710, 0.000006, -0.001879, -0.013300, -0.015734, 0.013521, 0.023209, -0.007172, -0.029606, -0.034968, -0.012732, 0.000006, 0.029734, 0.018289, 0.017437, -0.022742, 0.003163, -0.011846, 0.005802, 0.020221, 0.023078, 0.000006, 0.007161, 0.017265, -0.000168, -0.044135, -0.001191, -0.045388, 0.004323, 0.026474, -0.000897, 0.000006, 0.026775, 0.016059, -0.022304, -0.000036, 0.013108, -0.016912, -0.001403, 0.017260, 0.016548, 0.000006, -0.013010, -0.023999, -0.011615, -0.028885, 0.008578, 0.008308, -0.020627, -0.015910, -0.011281, 0.000006, -0.027246, -0.037714, -0.046817, -0.019105, -0.004911, -0.012441, -0.015630, -0.017632, 0.002941, 0.000006, 0.015032, 0.030455, 0.010664, -0.001049, 0.034656, -0.004263, 0.024640, 0.037578, 0.027896, 0.000006, 0.006371, 0.014121, 0.014663, -0.008313, 0.001283, -0.022733, 0.005103, 0.002517, 0.002648, 0.000006, 0.038934, 0.037514, 0.009883, -0.013222, 0.028831, 0.007561, 0.014316, 0.025732, 0.014186, 0.000006, -0.025975, -0.030873, -0.001681, 0.012807, 0.026349, 0.003504, -0.034245, -0.029467, -0.033775, 0.000006, -0.030565, -0.025018, 0.019133, -0.004706, 0.021249, -0.003672, 0.015772, 0.028895, 0.022858, 0.000006, 0.019928, 0.030556, 0.035892, 0.063313, 0.088548, 0.077352, 0.058211, 0.055335, 0.039324, 0.000006, 0.007874, 0.014750, 0.042168, 0.017342, 0.022173, 0.024617, 0.041649, 0.010504, -0.000442, 0.000006, 0.042121, 0.074498, 0.068525, 0.055469, 0.067102, 0.055352, 0.041419, 0.040374, 0.021287, 0.000006, 0.018068, 0.022134, 0.003160, -0.003001, 0.017901, 0.004027, -0.000457, -0.005833, -0.036268, 0.000006, -0.020259, -0.019542, -0.020514, -0.055173, -0.021197, -0.046598, -0.037415, -0.020929, 0.005588, 0.000006, 0.014210, 0.007214, -0.007223, -0.002140, 0.040035, 0.012890, -0.046989, 0.007560, 0.015554, 0.000006, -0.026578, -0.020657, -0.027020, 0.002988, 0.021998, -0.000708, -0.035402, -0.013485, -0.032768, 0.000006, 0.016204, 0.000894, -0.022545, 0.011480, 0.049183, 0.013373, -0.010339, -0.001311, 0.017714, 0.000006, -0.002569, -0.021940, -0.035475, -0.048265, -0.033904, -0.039604, 0.010493, 0.000635, -0.002889, 0.000006},
	{-0.021873, -0.022121, -0.026735, 0.003148, -0.020483, -0.033153, -0.026390, -0.022492, 0.004030, -0.000009, 0.019936, -0.039351, -0.076218, 0.000246, -0.005202, 0.010013, 0.028474, 0.036280, 0.056078, -0.000009, 0.032525, 0.030312, 0.042059, 0.069628, 0.081080, 0.067564, 0.019571, 0.015142, 0.026509, -0.000009, 0.043358, 0.041822, 0.045169, 0.015408, 0.013528, -0.027052, -0.078899, -0.039965, 0.023850, -0.000009, -0.006605, -0.016607, -0.030878, -0.014101, -0.020271, -0.012148, -0.040585, -0.008928, -0.013792, -0.000009, -0.021573, 0.001697, -0.018710, 0.015964, -0.003854, -0.021224, -0.053418, -0.029640, -0.004241, -0.000009, 0.077088, 0.063021, -0.016806, 0.009376, 0.022969, 0.028181, 0.052130, 0.068186, 0.040623, -0.000009, 0.032120, 0.054505, 0.046576, 0.052857, 0.057726, 0.033337, 0.035403, 0.045042, 0.028870, -0.000009, 0.046366, 0.058472, 0.053487, 0.014560, 0.019353, 0.008311, -0.018196, 0.056574, 0.072693, -0.000009, -0.007319, -0.034643, -0.061850, -0.006810, 0.008558, 0.009700, -0.028418, 0.013896, -0.022891, -0.000009, -0.002409, -0.008434, -0.003521, -0.017059, -0.009929, 0.024909, 0.023571, 0.014498, -0.001846, -0.000009, 0.034750, 0.029706, 0.014687, 0.042576, 0.025537, 0.025923, 0.050948, 0.022799, 0.020909, -0.000009, -0.003867, 0.022166, 0.033238, 0.024356, 0.022689, 0.002479, 0.030275, 0.002121, -0.009869, -0.000009, 0.015697, 0.019431, 0.055892, 0.030562, 0.024217, 0.026547, 0.013720, 0.020070, 0.043609, -0.000009, 0.014534, -0.002380, 0.037190, 0.029342, 0.006318, 0.011384, -0.015843, -0.007590, 0.014241, -0.000009, 0.018234, -0.003527, 0.009997, 0.019598, 0.007177, 0.021448, 0.044744, 0.038535, 0.040554, -0.000009, -0.040053, -0.006306, 0.012316, -0.004460, -0.002029, 0.029084, 0.074937, 0.025769, -0.054837, -0.000009, -0.027415, -0.004374, -0.001518, -0.009305, 0.018694, -0.007330, 0.014778, -0.027150, -0.051506, -0.000009, -0.037784, 0.026170, 0.063825, 0.030244, 0.000305, 0.010625, 0.007496, -0.011024, -0.035120, -0.000009, 0.052306, 0.029413, 0.065171, 0.026592, 0.021438, 0.012240, -0.006477, 0.008419, 0.038292, -0.000009, 0.028103, -0.011365, -0.005356, 0.019984, 0.008239, -0.032832, 0.006975, 0.032291, 0.039200, -0.000009, 0.012430, -0.025318, 0.006556, -0.021851, 0.001443, -0.026282, -0.052297, -0.060824, -0.031074, -0.000009, -0.015739, -0.026574, -0.024309, -0.030397, -0.015163, -0.018551, -0.027497, -0.024846, -0.006803, -0.000009, -0.053149, -0.069009, -0.031720, -0.001394, -0.002481, -0.019312, -0.003355, -0.011151, -0.022015, -0.000009, 0.036656, 0.012395, 0.026462, -0.014544, 0.042545, 0.023825, -0.016794, 0.010681, 0.017364, -0.000009, 0.027159, 0.001058, 0.021888, 0.039203, 0.043678, 0.003959, 0.035814, 0.015099, 0.033222, -0.000009, 0.001712, -0.009438, 0.050594, -0.008677, -0.004930, 0.009740, 0.002278, -0.021887, 0.006932, -0.000009, 0.012460, 0.010656, 0.028208, -0.017609, -0.034276, -0.020252, -0.014102, -0.009704, 0.017041, -0.000009, 0.017186, -0.009274, 0.015498, -0.022393, -0.010796, -0.014987, -0.006641, -0.016210, -0.004484, -0.000009, 0.038763, 0.025594, 0.061554, 0.030418, 0.050172, 0.030181, 0.008928, 0.020008, 0.025686, -0.000009, 0.005513, -0.006359, 0.045544, 0.021454, 0.005893, -0.005894, -0.007755, 0.011981, 0.015359, -0.000009, 0.011472, 0.000611, 0.025675, -0.022346, -0.032906, -0.005852, -0.004604, -0.000289, 0.025845, -0.000009, -0.008889, -0.037818, -0.002839, -0.019185, -0.005793, -0.015480, -0.020404, -0.024027, 0.005077, -0.000009, 0.002778, -0.007864, -0.019839, -0.046491, -0.038134, -0.014322, 0.014927, -0.011172, 0.002876, -0.000009, 0.018243, -0.001382, 0.027490, -0.002592, 0.025446, 0.014179, 0.028179, 0.012018, 0.001889, -0.000009, -0.003962, 0.000830, 0.010778, 0.006194, 0.023141, -0.016961, 0.000183, 0.013826, 0.017228, -0.000009, -0.001371, -0.006290, 0.014993, 0.001716, 0.002355, -0.016620, 0.007900, 0.000102, 0.032722, -0.000009, -0.004520, -0.016564, -0.009850, 0.003558, 0.033088, 0.006284, -0.011650, -0.012909, -0.000400, -0.000009, 0.007502, -0.012294, 0.005189, 0.000467, 0.008879, -0.008014, 0.005450, -0.015287, 0.005892, -0.000009, 0.023710, 0.003544, 0.025156, 0.014896, 0.034489, 0.002728, -0.002127, 0.005158, 0.023343, -0.000009, 0.029128, 0.007634, -0.003625, 0.016681, 0.031956, -0.004122, -0.003664, 0.022265, 0.032778, -0.000009, 0.014120, -0.041668, 0.005548, 0.011703, 0.028798, -0.015212, -0.016305, 0.026885, 0.023427, -0.000009, -0.048340, -0.049746, 0.021160, 0.010344, 0.016142, 0.025904, -0.000172, -0.067438, -0.053076, -0.000009, 0.011967, -0.006270, -0.032175, -0.027416, 0.028570, 0.001455, 0.013816, -0.039172, -0.005224, -0.000009, 0.055912, 0.027247, -0.001261, -0.000755, 0.034209, 0.016992, 0.019555, 0.015631, 0.035449, -0.000009, 0.029519, 0.033422, 0.023441, 0.016964, 0.057328, 0.018867, -0.003189, 0.017423, 0.034017, -0.000009, 0.008540, -0.002425, 0.024585, 0.014293, 0.028985, 0.003690, -0.004421, 0.015051, 0.014745, -0.000009, -0.026306, -0.057674, -0.002401, 0.005214, 0.018871, 0.002002, -0.026378, -0.057489, -0.025579, -0.000009, 0.017926, 0.002968, -0.022063, -0.007976, 0.028003, -0.014848, 0.013988, 0.017029, 0.012046, -0.000009, 0.036816, 0.032662, 0.002637, 0.009846, 0.048015, 0.030344, 0.032594, 0.027695, 0.030942, -0.000009, 0.029220, 0.011701, -0.002062, -0.004691, 0.036253, -0.007067, -0.053086, -0.020803, 0.010316, -0.000009, 0.030699, 0.015657, 0.026468, -0.004905, 0.007631, -0.002813, 0.004682, 0.009136, 0.025068, -0.000009, -0.024257, -0.022519, -0.034271, -0.017848, 0.010751, -0.033220, -0.029665, 0.002079, -0.014405, -0.000009, 0.048406, 0.004120, -0.024683, -0.009294, 0.022902, -0.032042, 0.013998, 0.025554, 0.034218, -0.000009, 0.019300, -0.003706, -0.024310, 0.011796, 0.037105, -0.009108, -0.033017, 0.015263, 0.040306, -0.000009, 0.014922, -0.013247, -0.006725, 0.016859, 0.017841, -0.006607, -0.017860, -0.009887, 0.018167, -0.000009, 0.016705, 0.020081, 0.025061, -0.001475, -0.001741, -0.021639, 0.036316, 0.011306, 0.010081, -0.000009, -0.029065, 0.015426, 0.021871, -0.014751, -0.002407, -0.013065, 0.028262, 0.002821, -0.024416, -0.000009, 0.021548, 0.016158, 0.033982, -0.023720, -0.007176, -0.029647, 0.001714, 0.011883, 0.017477, -0.000009, 0.008959, -0.011359, -0.010048, -0.018880, 0.002039, 0.008475, -0.018000, -0.005113, 0.010439, -0.000009, 0.008827, -0.014685, -0.011088, 0.003802, 0.004408, 0.001203, -0.010755, -0.023844, 0.001866, -0.000009, 0.020696, 0.025011, 0.012572, -0.021440, -0.003523, -0.014406, 0.007863, -0.002899, 0.011823, -0.000009, -0.021312, -0.021441, 0.002281, 0.000179, 0.027736, -0.001171, 0.015924, -0.008030, -0.021113, -0.000009, 0.028065, 0.013838, 0.007777, 0.007640, 0.000244, -0.008760, 0.012597, 0.009368, 0.006896, -0.000009, 0.013120, -0.013469, -0.015774, -0.010009, 0.017687, 0.011816, -0.028773, -0.016804, -0.007559, -0.000009, -0.000463, -0.014820, -0.020954, 0.011087, 0.025080, -0.014516, -0.024268, -0.044249, -0.018511, -0.000009, 0.037534, 0.018638, 0.020193, -0.020206, 0.001588, -0.013026, 0.008542, 0.021661, 0.028349, -0.000009, 0.012925, 0.012699, -0.001154, -0.049515, -0.002725, -0.050576, 0.000073, 0.024793, 0.004406, -0.000009, 0.034988, 0.013931, -0.023772, -0.004097, 0.020193, -0.014314, -0.001813, 0.017104, 0.020639, -0.000009, -0.016402, -0.027597, -0.009132, -0.030988, 0.008941, 0.008022, -0.025223, -0.017280, -0.005742, -0.000009, -0.030545, -0.041034, -0.058137, -0.016299, -0.001364, -0.013615, -0.015823, -0.019747, 0.004725, -0.000009, 0.014125, 0.035243, 0.007180, -0.001081, 0.040574, -0.004695, 0.022673, 0.038455, 0.030942, -0.000009, 0.010477, 0.012595, 0.015927, -0.015147, -0.005784, -0.026514, 0.004844, 0.001102, 0.002303, -0.000009, 0.047131, 0.042897, 0.006427, -0.007677, 0.036533, 0.010367, 0.012102, 0.029037, 0.017412, -0.000009, -0.026118, -0.042464, -0.000100, 0.015749, 0.030030, 0.000471, -0.044570, -0.026538, -0.036737, -0.000009, -0.030492, -0.025194, 0.021538, -0.009878, 0.026747, -0.014763, 0.019741, 0.027719, 0.020515, -0.000009, 0.019787, 0.038131, 0.032467, 0.067694, 0.098908, 0.080240, 0.063460, 0.061149, 0.045323, -0.000009, 0.006778, 0.021338, 0.050421, 0.021039, 0.028208, 0.025258, 0.046104, 0.013036, -0.001292, -0.000009, 0.047197, 0.086187, 0.072579, 0.057455, 0.075260, 0.056789, 0.039697, 0.044841, 0.019730, -0.000009, 0.015826, 0.022649, 0.004035, -0.011717, 0.021490, 0.005228, 0.000785, -0.005679, -0.043570, -0.000009, -0.020485, -0.023653, -0.019424, -0.060272, -0.022454, -0.057369, -0.040570, -0.020455, 0.003319, -0.000009, 0.010576, 0.005224, -0.008252, -0.005547, 0.044329, 0.010736, -0.052124, 0.001880, 0.016753, -0.000009, -0.036166, -0.018004, -0.031296, -0.002060, 0.027891, -0.001146, -0.039507, -0.015520, -0.039222, -0.000009, 0.013598, -0.002956, -0.027421, 0.010054, 0.053245, 0.009814, -0.009319, -0.002845, 0.019299, -0.000009, -0.005585, -0.022537, -0.041654, -0.056286, -0.035705, -0.044143, 0.012095, 0.000784, -0.007520, -0.000009},
	{-0.027215, -0.017483, -0.032997, 0.002713, -0.016324, -0.028710, -0.028454, -0.026069, 0.006591, -0.000005, 0.015914, -0.044959, -0.085777, 0.002656, -0.002685, 0.010358, 0.031527, 0.038578, 0.054872, -0.000005, 0.027722, 0.029077, 0.045528, 0.080808, 0.093084, 0.074009, 0.014435, 0.012122, 0.027297, -0.000005, 0.037679, 0.048436, 0.046037, 0.013271, 0.013440, -0.027151, -0.087101, -0.044235, 0.017245, -0.000005, -0.003567, -0.019245, -0.035999, -0.009451, -0.018475, -0.008308, -0.046601, -0.007130, -0.013832, -0.000005, -0.022116, 0.002222, -0.013130, 0.022420, -0.004608, -0.017465, -0.058293, -0.030469, -0.008238, -0.000005, 0.082899, 0.066237, -0.015308, 0.006093, 0.028905, 0.025367, 0.055380, 0.079939, 0.049059, -0.000005, 0.037683, 0.062908, 0.053610, 0.060593, 0.062088, 0.036935, 0.042776, 0.054953, 0.034288, -0.000005, 0.054452, 0.069779, 0.058820, 0.011256, 0.021161, 0.007884, -0.020204, 0.062229, 0.074894, -0.000005, -0.013667, -0.034112, -0.066455, -0.008726, 0.007534, 0.015071, -0.026383, 0.022108, -0.022531, -0.000005, -0.006097, -0.008286, -0.007456, -0.010269, -0.006373, 0.030332, 0.027654, 0.008390, -0.001291, -0.000005, 0.040907, 0.040021, 0.017781, 0.052550, 0.027133, 0.030947, 0.056701, 0.029214, 0.022851, -0.000005, -0.005003, 0.026214, 0.034975, 0.026917, 0.017849, 0.004814, 0.032196, 0.006752, -0.010546, -0.000005, 0.016622, 0.029290, 0.062029, 0.036441, 0.022612, 0.035142, 0.013611, 0.025991, 0.049122, -0.000005, 0.015672, -0.005619, 0.036183, 0.033403, 0.006693, 0.017153, -0.019774, -0.005615, 0.010024, -0.000005, 0.013177, -0.004421, 0.003884, 0.013442, 0.008000, 0.021224, 0.055265, 0.046944, 0.047198, -0.000005, -0.040217, -0.006049, 0.007518, -0.004693, -0.003144, 0.030790, 0.085320, 0.022136, -0.057476, -0.000005, -0.027575, -0.003337, 0.004073, -0.008950, 0.020594, -0.008403, 0.024090, -0.032102, -0.050704, -0.000005, -0.043371, 0.022825, 0.073085, 0.029672, -0.004851, 0.013877, 0.004456, -0.012468, -0.037555, -0.000005, 0.058108, 0.035959, 0.077571, 0.031342, 0.020940, 0.012428, -0.008162, 0.007408, 0.029834, -0.000005, 0.029572, -0.013629, -0.009425, 0.020134, 0.012542, -0.044052, 0.006362, 0.034695, 0.045014, -0.000005, 0.015589, -0.025453, 0.010945, -0.018042, -0.005005, -0.025235, -0.055899, -0.069144, -0.039837, -0.000005, -0.018102, -0.022765, -0.020859, -0.032901, -0.009830, -0.021811, -0.025624, -0.024226, -0.010177, -0.000005, -0.066604, -0.073945, -0.031792, -0.008520, -0.010004, -0.021556, 0.001141, -0.010663, -0.026358, -0.000005, 0.043700, 0.014454, 0.027655, -0.019309, 0.049161, 0.027276, -0.020379, 0.007512, 0.022043, -0.000005, 0.028824, -0.001232, 0.020551, 0.038777, 0.044385, 0.002348, 0.032718, 0.012044, 0.036439, -0.000005, 0.004324, -0.018694, 0.051188, -0.013326, -0.002983, 0.006943, 0.002717, -0.020062, 0.007097, -0.000005, 0.015786, 0.013312, 0.029827, -0.017815, -0.041768, -0.022637, -0.014169, -0.007343, 0.020551, -0.000005, 0.018304, -0.010103, 0.024309, -0.025817, -0.010802, -0.017467, -0.005716, -0.016942, -0.000810, -0.000005, 0.046409, 0.023846, 0.057510, 0.029216, 0.051340, 0.029265, 0.005692, 0.017869, 0.028806, -0.000005, 0.007646, -0.007655, 0.047112, 0.023830, 0.007154, -0.008428, -0.009239, 0.010730, 0.016548, -0.000005, 0.013190, 0.001366, 0.025964, -0.020127, -0.037058, -0.008414, -0.003486, 0.002439, 0.028142, -0.000005, -0.010926, -0.041126, -0.010055, -0.018091, -0.003827, -0.014602, -0.028794, -0.021917, 0.008368, -0.000005, 0.004360, -0.001363, -0.023427, -0.047019, -0.035229, -0.016745, 0.017802, -0.011339, 0.003729, -0.000005, 0.015557, -0.005511, 0.022682, -0.004706, 0.027940, 0.012200, 0.032950, 0.007831, 0.007341, -0.000005, 0.003127, 0.002673, 0.012009, 0.009221, 0.026629, -0.014025, 0.001838, 0.010684, 0.022696, -0.000005, -0.001279, -0.007483, 0.015423, 0.005588, 0.000083, -0.020132, 0.006739, -0.000048, 0.035832, -0.000005, -0.009416, -0.021266, -0.010967, 0.006015, 0.031647, 0.007631, -0.011202, -0.011747, -0.001638, -0.000005, 0.008081, -0.014752, 0.005222, -0.000107, 0.006909, -0.006009, 0.005410, -0.016710, 0.004926, -0.000005, 0.026379, 0.003339, 0.024243, 0.012603, 0.038594, 0.003205, -0.002695, 0.004494, 0.028276, -0.000005, 0.032612, 0.010070, -0.003620, 0.016076, 0.037486, -0.004611, -0.005956, 0.019898, 0.040008, -0.000005, 0.015187, -0.044059, 0.010804, 0.014501, 0.023699, -0.014315, -0.010748, 0.025966, 0.026793, -0.000005, -0.051827, -0.057223, 0.016382, 0.011624, 0.019772, 0.032752, -0.004436, -0.071738, -0.055562, -0.000005, 0.015400, -0.005822, -0.031283, -0.030442, 0.025738, -0.000368, 0.019358, -0.042628, -0.003186, -0.000005, 0.065155, 0.026090, 0.002782, -0.005854, 0.038228, 0.023558, 0.015755, 0.021961, 0.037217, -0.000005, 0.037886, 0.030127, 0.021203, 0.020316, 0.057307, 0.018624, -0.009128, 0.014114, 0.035360, -0.000005, 0.010654, -0.009426, 0.020163, 0.006552, 0.024419, 0.007165, -0.006424, 0.015974, 0.020940, -0.000005, -0.035983, -0.060487, -0.006094, 0.006821, 0.019059, 0.005910, -0.028106, -0.063479, -0.032602, -0.000005, 0.020089, -0.001063, -0.030743, -0.011567, 0.026887, -0.017732, 0.010976, 0.013618, 0.014007, -0.000005, 0.036381, 0.029233, -0.004045, 0.007683, 0.049558, 0.032864, 0.030925, 0.021070, 0.033459, -0.000005, 0.031980, 0.008704, -0.004023, -0.003475, 0.034108, -0.011023, -0.052254, -0.022884, 0.010961, -0.000005, 0.034628, 0.022399, 0.023474, -0.002784, 0.008980, -0.003816, 0.000762, 0.005864, 0.026960, -0.000005, -0.024347, -0.028448, -0.033136, -0.024018, 0.011809, -0.037637, -0.023420, 0.003720, -0.014754, -0.000005, 0.056541, 0.001044, -0.030237, -0.011202, 0.023633, -0.028543, 0.009815, 0.030752, 0.041634, -0.000005, 0.017495, -0.011020, -0.022448, 0.011002, 0.041305, -0.010549, -0.036288, 0.016204, 0.039872, -0.000005, 0.019558, -0.014388, -0.008021, 0.017122, 0.019363, -0.011435, -0.019470, -0.016318, 0.020761, -0.000005, 0.017795, 0.023827, 0.022300, -0.004865, -0.004007, -0.024080, 0.040030, 0.007459, 0.016043, -0.000005, -0.032535, 0.016488, 0.016576, -0.023810, -0.005678, -0.016955, 0.027921, -0.001341, -0.027028, -0.000005, 0.024218, 0.017682, 0.034451, -0.021188, -0.007086, -0.035691, 0.000789, 0.011919, 0.020393, -0.000005, 0.013623, -0.016001, -0.008343, -0.023072, 0.003604, 0.008855, -0.021141, -0.001090, 0.013945, -0.000005, 0.007755, -0.019269, -0.017667, 0.004367, 0.007112, -0.000426, -0.009182, -0.025631, 0.002242, -0.000005, 0.020926, 0.028492, 0.013050, -0.025518, -0.004352, -0.016721, 0.004974, -0.004707, 0.019347, -0.000005, -0.023615, -0.025921, -0.000884, 0.001403, 0.020204, -0.001413, 0.016676, -0.014933, -0.019420, -0.000005, 0.033086, 0.013000, 0.011113, 0.007311, 0.001754, -0.007713, 0.014408, 0.012593, 0.005612, -0.000005, 0.012484, -0.016673, -0.013771, -0.009373, 0.018275, 0.011787, -0.036285, -0.016684, -0.008127, -0.000005, -0.000012, -0.020077, -0.023306, 0.006151, 0.027528, -0.016697, -0.019903, -0.048885, -0.021291, -0.000005, 0.046189, 0.024950, 0.022406, -0.023103, 0.007124, -0.009102, 0.008091, 0.020822, 0.032250, -0.000005, 0.016516, 0.014831, -0.007025, -0.055007, -0.012167, -0.058636, -0.003264, 0.023611, 0.008955, -0.000005, 0.041098, 0.012246, -0.024148, -0.005538, 0.024273, -0.016930, 0.000283, 0.024358, 0.023819, -0.000005, -0.014710, -0.028000, -0.012915, -0.033191, 0.009163, 0.012084, -0.028655, -0.016321, -0.001412, -0.000005, -0.033445, -0.041665, -0.064691, -0.013565, -0.000021, -0.010179, -0.019536, -0.022734, 0.001738, -0.000005, 0.013983, 0.040310, 0.000848, -0.006789, 0.040825, 0.001852, 0.021592, 0.037923, 0.030823, -0.000005, 0.013583, 0.013787, 0.019425, -0.019256, -0.012377, -0.028538, 0.006071, 0.001299, 0.002861, -0.000005, 0.050186, 0.046089, 0.007674, 0.000632, 0.037860, 0.009221, 0.005111, 0.028412, 0.021065, -0.000005, -0.025704, -0.053446, -0.002432, 0.018402, 0.029548, 0.001207, -0.052178, -0.020254, -0.041911, -0.000005, -0.035194, -0.020989, 0.022255, -0.014522, 0.027619, -0.023757, 0.020331, 0.028750, 0.020564, -0.000005, 0.020697, 0.051450, 0.036299, 0.070467, 0.111751, 0.081495, 0.071417, 0.072249, 0.048611, -0.000005, 0.008470, 0.029102, 0.055792, 0.027130, 0.034967, 0.032600, 0.057323, 0.018605, -0.003962, -0.000005, 0.057099, 0.095225, 0.080853, 0.059501, 0.083872, 0.058833, 0.040669, 0.051960, 0.023256, -0.000005, 0.013580, 0.021824, 0.001905, -0.019749, 0.019881, 0.007056, -0.003275, -0.003051, -0.049806, -0.000005, -0.026027, -0.028147, -0.019429, -0.062055, -0.020180, -0.062104, -0.044405, -0.021951, 0.001394, -0.000005, 0.002124, 0.007017, -0.012126, -0.010258, 0.052112, 0.005718, -0.057143, -0.000488, 0.016769, -0.000005, -0.041617, -0.015366, -0.037719, -0.006707, 0.034889, -0.001195, -0.044675, -0.017909, -0.041804, -0.000005, 0.008811, -0.005614, -0.030811, 0.005129, 0.061320, 0.008799, -0.010687, -0.005441, 0.015656, -0.000005, -0.007311, -0.023286, -0.043716, -0.061489, -0.033480, -0.048399, 0.010219, 0.000505, -0.015018, -0.000005},
